[
  { "nodeid": 0, "leaf": -0.0666621849 },
  { "nodeid": 0, "depth": 0, "split": 0, "split_condition": 0.650696039, "yes": 1, "no": 2, "missing": 1 , "children": [
    { "nodeid": 1, "depth": 1, "split": 7, "split_condition": 0.875174522, "yes": 3, "no": 4, "missing": 3 , "children": [
      { "nodeid": 3, "depth": 2, "split": 4, "split_condition": 0.941666961, "yes": 7, "no": 8, "missing": 7 , "children": [
        { "nodeid": 7, "depth": 3, "split": 6, "split_condition": 0.151674002, "yes": 15, "no": 16, "missing": 15 , "children": [
          { "nodeid": 15, "depth": 4, "split": 3, "split_condition": 0.228576511, "yes": 31, "no": 32, "missing": 31 , "children": [
            { "nodeid": 31, "depth": 5, "split": 0, "split_condition": 0.580567002, "yes": 53, "no": 54, "missing": 53 , "children": [
              { "nodeid": 53, "leaf": 0.089871414 }, 
              { "nodeid": 54, "leaf": -0.14802514 }
            ]}, 
            { "nodeid": 32, "leaf": 0.175743178 }
          ]}, 
          { "nodeid": 16, "depth": 4, "split": 1, "split_condition": 0.477272511, "yes": 33, "no": 34, "missing": 33 , "children": [
            { "nodeid": 33, "leaf": 0.100716926 }, 
            { "nodeid": 34, "depth": 5, "split": 5, "split_condition": 0.119993001, "yes": 55, "no": 56, "missing": 55 , "children": [
              { "nodeid": 55, "depth": 6, "split": 0, "split_condition": 0.551391959, "yes": 79, "no": 80, "missing": 79 , "children": [
                { "nodeid": 79, "leaf": 0.114884056 }, 
                { "nodeid": 80, "leaf": -0.11607907 }
              ]}, 
              { "nodeid": 56, "depth": 6, "split": 3, "split_condition": 0.518253505, "yes": 81, "no": 82, "missing": 81 , "children": [
                { "nodeid": 81, "depth": 7, "split": 1, "split_condition": 0.856060505, "yes": 109, "no": 110, "missing": 109 , "children": [
                  { "nodeid": 109, "leaf": 0.16405572 }, 
                  { "nodeid": 110, "depth": 8, "split": 0, "split_condition": 0.410332024, "yes": 147, "no": 148, "missing": 147 , "children": [
                    { "nodeid": 147, "leaf": 0.114884056 }, 
                    { "nodeid": 148, "depth": 9, "split": 2, "split_condition": 0.315761507, "yes": 193, "no": 194, "missing": 193 , "children": [
                      { "nodeid": 193, "leaf": -0.0810187086 }, 
                      { "nodeid": 194, "leaf": -0.0185315646 }
                    ]}
                  ]}
                ]}, 
                { "nodeid": 82, "depth": 7, "split": 6, "split_condition": 0.471931994, "yes": 111, "no": 112, "missing": 111 , "children": [
                  { "nodeid": 111, "leaf": 0.198210388 }, 
                  { "nodeid": 112, "depth": 8, "split": 2, "split_condition": 0.119993001, "yes": 149, "no": 150, "missing": 149 , "children": [
                    { "nodeid": 149, "leaf": 0.114884056 }, 
                    { "nodeid": 150, "leaf": 0.0182349347 }
                  ]}
                ]}
              ]}
            ]}
          ]}
        ]}, 
        { "nodeid": 8, "depth": 3, "split": 0, "split_condition": 0.480460525, "yes": 17, "no": 18, "missing": 17 , "children": [
          { "nodeid": 17, "leaf": 0.189267591 }, 
          { "nodeid": 18, "leaf": -0.175467595 }
        ]}
      ]}, 
      { "nodeid": 4, "depth": 2, "split": 0, "split_condition": 0.557013035, "yes": 9, "no": 10, "missing": 9 , "children": [
        { "nodeid": 9, "depth": 3, "split": 4, "split_condition": 0.849087954, "yes": 19, "no": 20, "missing": 19 , "children": [
          { "nodeid": 19, "leaf": 0.197133496 }, 
          { "nodeid": 20, "depth": 4, "split": 0, "split_condition": 0.29389751, "yes": 35, "no": 36, "missing": 35 , "children": [
            { "nodeid": 35, "leaf": 0.124080911 }, 
            { "nodeid": 36, "depth": 5, "split": 1, "split_condition": 0.848484516, "yes": 57, "no": 58, "missing": 57 , "children": [
              { "nodeid": 57, "leaf": 0.0259403083 }, 
              { "nodeid": 58, "leaf": -0.141895428 }
            ]}
          ]}
        ]}, 
        { "nodeid": 10, "depth": 3, "split": 5, "split_condition": 0.190499499, "yes": 21, "no": 22, "missing": 21 , "children": [
          { "nodeid": 21, "depth": 4, "split": 1, "split_condition": 0.689393997, "yes": 37, "no": 38, "missing": 37 , "children": [
            { "nodeid": 37, "leaf": 0.0934215412 }, 
            { "nodeid": 38, "depth": 5, "split": 4, "split_condition": 0.449028015, "yes": 59, "no": 60, "missing": 59 , "children": [
              { "nodeid": 59, "leaf": -0.0185315646 }, 
              { "nodeid": 60, "leaf": -0.187222108 }
            ]}
          ]}, 
          { "nodeid": 22, "depth": 4, "split": 3, "split_condition": 0.244329989, "yes": 39, "no": 40, "missing": 39 , "children": [
            { "nodeid": 39, "leaf": 0.0222403742 }, 
            { "nodeid": 40, "leaf": 0.161384717 }
          ]}
        ]}
      ]}
    ]}, 
    { "nodeid": 2, "depth": 1, "split": 1, "split_condition": 0.606060505, "yes": 5, "no": 6, "missing": 5 , "children": [
      { "nodeid": 5, "depth": 2, "split": 0, "split_condition": 0.789882481, "yes": 11, "no": 12, "missing": 11 , "children": [
        { "nodeid": 11, "depth": 3, "split": 1, "split_condition": 0.204545498, "yes": 23, "no": 24, "missing": 23 , "children": [
          { "nodeid": 23, "depth": 4, "split": 3, "split_condition": 0.491867989, "yes": 41, "no": 42, "missing": 41 , "children": [
            { "nodeid": 41, "depth": 5, "split": 5, "split_condition": 0.464725494, "yes": 63, "no": 64, "missing": 63 , "children": [
              { "nodeid": 63, "depth": 6, "split": 6, "split_condition": 0.491867989, "yes": 83, "no": 84, "missing": 83 , "children": [
                { "nodeid": 83, "depth": 7, "split": 4, "split_condition": 0.59324348, "yes": 113, "no": 114, "missing": 113 , "children": [
                  { "nodeid": 113, "depth": 8, "split": 2, "split_condition": 0.313278496, "yes": 151, "no": 152, "missing": 151 , "children": [
                    { "nodeid": 151, "depth": 9, "split": 6, "split_condition": 0.324593008, "yes": 197, "no": 198, "missing": 197 , "children": [
                      { "nodeid": 197, "leaf": 0.134540603 }, 
                      { "nodeid": 198, "leaf": 0.0910813585 }
                    ]}, 
                    { "nodeid": 152, "leaf": 0.164594233 }
                  ]}, 
                  { "nodeid": 114, "depth": 8, "split": 5, "split_condition": 0.284186482, "yes": 153, "no": 154, "missing": 153 , "children": [
                    { "nodeid": 153, "leaf": 0.065674752 }, 
                    { "nodeid": 154, "depth": 9, "split": 6, "split_condition": 0.307756484, "yes": 199, "no": 200, "missing": 199 , "children": [
                      { "nodeid": 199, "leaf": 0.110576235 }, 
                      { "nodeid": 200, "leaf": 0.157605559 }
                    ]}
                  ]}
                ]}, 
                { "nodeid": 84, "leaf": 0.173278257 }
              ]}, 
              { "nodeid": 64, "leaf": 0.195733637 }
            ]}, 
            { "nodeid": 42, "depth": 5, "split": 2, "split_condition": 0.0751330033, "yes": 65, "no": 66, "missing": 65 , "children": [
              { "nodeid": 65, "depth": 6, "split": 5, "split_condition": 0.276387513, "yes": 85, "no": 86, "missing": 85 , "children": [
                { "nodeid": 85, "depth": 7, "split": 6, "split_condition": 0.389627993, "yes": 115, "no": 116, "missing": 115 , "children": [
                  { "nodeid": 115, "depth": 8, "split": 7, "split_condition": 0.704521537, "yes": 155, "no": 156, "missing": 155 , "children": [
                    { "nodeid": 155, "leaf": 0.114884056 }, 
                    { "nodeid": 156, "leaf": 0.0136102485 }
                  ]}, 
                  { "nodeid": 116, "leaf": -0.0111238267 }
                ]}, 
                { "nodeid": 86, "leaf": 0.141729727 }
              ]}, 
              { "nodeid": 66, "leaf": 0.186319813 }
            ]}
          ]}, 
          { "nodeid": 24, "depth": 4, "split": 7, "split_condition": 0.40804702, "yes": 43, "no": 44, "missing": 43 , "children": [
            { "nodeid": 43, "leaf": 0.186183408 }, 
            { "nodeid": 44, "depth": 5, "split": 2, "split_condition": 0.458562493, "yes": 67, "no": 68, "missing": 67 , "children": [
              { "nodeid": 67, "depth": 6, "split": 5, "split_condition": 0.418439507, "yes": 87, "no": 88, "missing": 87 , "children": [
                { "nodeid": 87, "depth": 7, "split": 3, "split_condition": 0.502287507, "yes": 117, "no": 118, "missing": 117 , "children": [
                  { "nodeid": 117, "depth": 8, "split": 7, "split_condition": 0.864580035, "yes": 159, "no": 160, "missing": 159 , "children": [
                    { "nodeid": 159, "depth": 9, "split": 2, "split_condition": 0.367532998, "yes": 205, "no": 206, "missing": 205 , "children": [
                      { "nodeid": 205, "leaf": -0.0108614089 }, 
                      { "nodeid": 206, "leaf": 0.102571882 }
                    ]}, 
                    { "nodeid": 160, "depth": 9, "split": 3, "split_condition": 0.346542507, "yes": 207, "no": 208, "missing": 207 , "children": [
                      { "nodeid": 207, "leaf": -0.0810187086 }, 
                      { "nodeid": 208, "leaf": 0.0259403083 }
                    ]}
                  ]}, 
                  { "nodeid": 118, "depth": 8, "split": 6, "split_condition": 0.460057497, "yes": 161, "no": 162, "missing": 161 , "children": [
                    { "nodeid": 161, "leaf": 0.105650879 }, 
                    { "nodeid": 162, "leaf": 0.00444579544 }
                  ]}
                ]}, 
                { "nodeid": 88, "depth": 7, "split": 3, "split_condition": 0.226223499, "yes": 119, "no": 120, "missing": 119 , "children": [
                  { "nodeid": 119, "leaf": 0.0402659141 }, 
                  { "nodeid": 120, "leaf": 0.141729727 }
                ]}
              ]}, 
              { "nodeid": 68, "leaf": 0.141713962 }
            ]}
          ]}
        ]}, 
        { "nodeid": 12, "depth": 3, "split": 5, "split_condition": 0.565977454, "yes": 25, "no": 26, "missing": 25 , "children": [
          { "nodeid": 25, "depth": 4, "split": 2, "split_condition": 0.501156509, "yes": 45, "no": 46, "missing": 45 , "children": [
            { "nodeid": 45, "depth": 5, "split": 7, "split_condition": 0.498987496, "yes": 69, "no": 70, "missing": 69 , "children": [
              { "nodeid": 69, "depth": 6, "split": 0, "split_condition": 0.865363955, "yes": 89, "no": 90, "missing": 89 , "children": [
                { "nodeid": 89, "depth": 7, "split": 3, "split_condition": 0.450538993, "yes": 121, "no": 122, "missing": 121 , "children": [
                  { "nodeid": 121, "depth": 8, "split": 1, "split_condition": 0.0454550013, "yes": 163, "no": 164, "missing": 163 , "children": [
                    { "nodeid": 163, "leaf": 0.146555886 }, 
                    { "nodeid": 164, "depth": 9, "split": 6, "split_condition": 0.567901969, "yes": 209, "no": 210, "missing": 209 , "children": [
                      { "nodeid": 209, "leaf": -0.127490059 }, 
                      { "nodeid": 210, "leaf": -0.0677808747 }
                    ]}
                  ]}, 
                  { "nodeid": 122, "depth": 8, "split": 1, "split_condition": 0.204545498, "yes": 165, "no": 166, "missing": 165 , "children": [
                    { "nodeid": 165, "depth": 9, "split": 6, "split_condition": 0.554459989, "yes": 211, "no": 212, "missing": 211 , "children": [
                      { "nodeid": 211, "leaf": 0.00212713541 }, 
                      { "nodeid": 212, "leaf": 0.0774271488 }
                    ]}, 
                    { "nodeid": 166, "leaf": -0.0947531462 }
                  ]}
                ]}, 
                { "nodeid": 90, "leaf": -0.190618798 }
              ]}, 
              { "nodeid": 70, "depth": 6, "split": 4, "split_condition": 0.366708994, "yes": 91, "no": 92, "missing": 91 , "children": [
                { "nodeid": 91, "depth": 7, "split": 0, "split_condition": 0.869914472, "yes": 123, "no": 124, "missing": 123 , "children": [
                  { "nodeid": 123, "depth": 8, "split": 7, "split_condition": 0.795516014, "yes": 167, "no": 168, "missing": 167 , "children": [
                    { "nodeid": 167, "depth": 9, "split": 6, "split_condition": 0.514832497, "yes": 213, "no": 214, "missing": 213 , "children": [
                      { "nodeid": 213, "leaf": 0.0195196178 }, 
                      { "nodeid": 214, "leaf": 0.124080911 }
                    ]}, 
                    { "nodeid": 168, "leaf": -0.114334755 }
                  ]}, 
                  { "nodeid": 124, "leaf": -0.185662031 }
                ]}, 
                { "nodeid": 92, "depth": 7, "split": 5, "split_condition": 0.428935498, "yes": 125, "no": 126, "missing": 125 , "children": [
                  { "nodeid": 125, "depth": 8, "split": 4, "split_condition": 0.700293005, "yes": 169, "no": 170, "missing": 169 , "children": [
                    { "nodeid": 169, "depth": 9, "split": 3, "split_condition": 0.643148541, "yes": 215, "no": 216, "missing": 215 , "children": [
                      { "nodeid": 215, "leaf": -0.179018006 }, 
                      { "nodeid": 216, "leaf": -0.129672334 }
                    ]}, 
                    { "nodeid": 170, "leaf": -0.192301199 }
                  ]}, 
                  { "nodeid": 126, "depth": 8, "split": 7, "split_condition": 0.587097526, "yes": 171, "no": 172, "missing": 171 , "children": [
                    { "nodeid": 171, "depth": 9, "split": 0, "split_condition": 0.83404696, "yes": 217, "no": 218, "missing": 217 , "children": [
                      { "nodeid": 217, "leaf": -0.0437523238 }, 
                      { "nodeid": 218, "leaf": -0.190387651 }
                    ]}, 
                    { "nodeid": 172, "depth": 9, "split": 0, "split_condition": 0.883298039, "yes": 219, "no": 220, "missing": 219 , "children": [
                      { "nodeid": 219, "leaf": 0.0509158261 }, 
                      { "nodeid": 220, "leaf": -0.185392916 }
                    ]}
                  ]}
                ]}
              ]}
            ]}, 
            { "nodeid": 46, "depth": 5, "split": 0, "split_condition": 0.883029997, "yes": 71, "no": 72, "missing": 71 , "children": [
              { "nodeid": 71, "depth": 6, "split": 4, "split_condition": 0.496379495, "yes": 93, "no": 94, "missing": 93 , "children": [
                { "nodeid": 93, "depth": 7, "split": 2, "split_condition": 0.60926348, "yes": 127, "no": 128, "missing": 127 , "children": [
                  { "nodeid": 127, "depth": 8, "split": 7, "split_condition": 0.774317503, "yes": 173, "no": 174, "missing": 173 , "children": [
                    { "nodeid": 173, "depth": 9, "split": 1, "split_condition": 0.159090996, "yes": 221, "no": 222, "missing": 221 , "children": [
                      { "nodeid": 221, "leaf": 0.0452866405 }, 
                      { "nodeid": 222, "leaf": -0.10529168 }
                    ]}, 
                    { "nodeid": 174, "depth": 9, "split": 1, "split_condition": 0.0303035006, "yes": 223, "no": 224, "missing": 223 , "children": [
                      { "nodeid": 223, "leaf": 0.0259403083 }, 
                      { "nodeid": 224, "leaf": -0.107694566 }
                    ]}
                  ]}, 
                  { "nodeid": 128, "depth": 8, "split": 7, "split_condition": 0.794104993, "yes": 175, "no": 176, "missing": 175 , "children": [
                    { "nodeid": 175, "depth": 9, "split": 3, "split_condition": 0.662985504, "yes": 225, "no": 226, "missing": 225 , "children": [
                      { "nodeid": 225, "leaf": 0.112782501 }, 
                      { "nodeid": 226, "leaf": 0.154286385 }
                    ]}, 
                    { "nodeid": 176, "depth": 9, "split": 2, "split_condition": 0.865470529, "yes": 227, "no": 228, "missing": 227 , "children": [
                      { "nodeid": 227, "leaf": 0.0325538181 }, 
                      { "nodeid": 228, "leaf": 0.146555886 }
                    ]}
                  ]}
                ]}, 
                { "nodeid": 94, "depth": 7, "split": 2, "split_condition": 0.67859149, "yes": 129, "no": 130, "missing": 129 , "children": [
                  { "nodeid": 129, "depth": 8, "split": 3, "split_condition": 0.40071398, "yes": 177, "no": 178, "missing": 177 , "children": [
                    { "nodeid": 177, "depth": 9, "split": 1, "split_condition": 0.439393997, "yes": 229, "no": 230, "missing": 229 , "children": [
                      { "nodeid": 229, "leaf": -0.160721779 }, 
                      { "nodeid": 230, "leaf": -0.110549703 }
                    ]}, 
                    { "nodeid": 178, "depth": 9, "split": 7, "split_condition": 0.485884011, "yes": 231, "no": 232, "missing": 231 , "children": [
                      { "nodeid": 231, "leaf": 0.0588275865 }, 
                      { "nodeid": 232, "leaf": -0.060469836 }
                    ]}
                  ]}, 
                  { "nodeid": 130, "depth": 8, "split": 6, "split_condition": 0.142639995, "yes": 179, "no": 180, "missing": 179 , "children": [
                    { "nodeid": 179, "leaf": 0.00444579544 }, 
                    { "nodeid": 180, "leaf": 0.125442415 }
                  ]}
                ]}
              ]}, 
              { "nodeid": 72, "depth": 6, "split": 7, "split_condition": 0.394656003, "yes": 95, "no": 96, "missing": 95 , "children": [
                { "nodeid": 95, "leaf": -0.0817775875 }, 
                { "nodeid": 96, "leaf": -0.181603342 }
              ]}
            ]}
          ]}, 
          { "nodeid": 26, "depth": 4, "split": 0, "split_condition": 0.888383508, "yes": 47, "no": 48, "missing": 47 , "children": [
            { "nodeid": 47, "depth": 5, "split": 1, "split_condition": 0.204545498, "yes": 73, "no": 74, "missing": 73 , "children": [
              { "nodeid": 73, "depth": 6, "split": 2, "split_condition": 0.207702994, "yes": 97, "no": 98, "missing": 97 , "children": [
                { "nodeid": 97, "depth": 7, "split": 6, "split_condition": 0.601228952, "yes": 131, "no": 132, "missing": 131 , "children": [
                  { "nodeid": 131, "depth": 8, "split": 3, "split_condition": 0.401926994, "yes": 181, "no": 182, "missing": 181 , "children": [
                    { "nodeid": 181, "depth": 9, "split": 3, "split_condition": 0.180004001, "yes": 233, "no": 234, "missing": 233 , "children": [
                      { "nodeid": 233, "leaf": -0.0415724292 }, 
                      { "nodeid": 234, "leaf": 0.0586101823 }
                    ]}, 
                    { "nodeid": 182, "leaf": 0.167449728 }
                  ]}, 
                  { "nodeid": 132, "depth": 8, "split": 5, "split_condition": 0.728781521, "yes": 183, "no": 184, "missing": 183 , "children": [
                    { "nodeid": 183, "depth": 9, "split": 3, "split_condition": 0.235762998, "yes": 235, "no": 236, "missing": 235 , "children": [
                      { "nodeid": 235, "leaf": -0.0455711968 }, 
                      { "nodeid": 236, "leaf": 0.0159932114 }
                    ]}, 
                    { "nodeid": 184, "leaf": 0.0961143523 }
                  ]}
                ]}, 
                { "nodeid": 98, "depth": 7, "split": 2, "split_condition": 0.529616475, "yes": 133, "no": 134, "missing": 133 , "children": [
                  { "nodeid": 133, "leaf": 0.139603674 }, 
                  { "nodeid": 134, "depth": 8, "split": 3, "split_condition": 0.601228952, "yes": 185, "no": 186, "missing": 185 , "children": [
                    { "nodeid": 185, "depth": 9, "split": 4, "split_condition": 0.425601006, "yes": 237, "no": 238, "missing": 237 , "children": [
                      { "nodeid": 237, "leaf": 0.0619518124 }, 
                      { "nodeid": 238, "leaf": -0.0139511004 }
                    ]}, 
                    { "nodeid": 186, "leaf": 0.0858578607 }
                  ]}
                ]}
              ]}, 
              { "nodeid": 74, "depth": 6, "split": 1, "split_condition": 0.424242496, "yes": 99, "no": 100, "missing": 99 , "children": [
                { "nodeid": 99, "depth": 7, "split": 4, "split_condition": 0.598698497, "yes": 135, "no": 136, "missing": 135 , "children": [
                  { "nodeid": 135, "leaf": -0.0139511004 }, 
                  { "nodeid": 136, "leaf": -0.0630034432 }
                ]}, 
                { "nodeid": 100, "depth": 7, "split": 3, "split_condition": 0.631286979, "yes": 137, "no": 138, "missing": 137 , "children": [
                  { "nodeid": 137, "leaf": -0.15554671 }, 
                  { "nodeid": 138, "leaf": -0.0360257439 }
                ]}
              ]}
            ]}, 
            { "nodeid": 48, "depth": 5, "split": 4, "split_condition": 0.498987496, "yes": 75, "no": 76, "missing": 75 , "children": [
              { "nodeid": 75, "depth": 6, "split": 2, "split_condition": 0.663911521, "yes": 101, "no": 102, "missing": 101 , "children": [
                { "nodeid": 101, "depth": 7, "split": 4, "split_condition": 0.360655993, "yes": 139, "no": 140, "missing": 139 , "children": [
                  { "nodeid": 139, "leaf": -0.0806681514 }, 
                  { "nodeid": 140, "leaf": -0.134514153 }
                ]}, 
                { "nodeid": 102, "leaf": -0.0735641792 }
              ]}, 
              { "nodeid": 76, "depth": 6, "split": 2, "split_condition": 0.559757471, "yes": 103, "no": 104, "missing": 103 , "children": [
                { "nodeid": 103, "leaf": -0.190677956 }, 
                { "nodeid": 104, "leaf": -0.0524246059 }
              ]}
            ]}
          ]}
        ]}
      ]}, 
      { "nodeid": 6, "depth": 2, "split": 4, "split_condition": 0.306412011, "yes": 13, "no": 14, "missing": 13 , "children": [
        { "nodeid": 13, "depth": 3, "split": 0, "split_condition": 0.775428534, "yes": 27, "no": 28, "missing": 27 , "children": [
          { "nodeid": 27, "depth": 4, "split": 6, "split_condition": 0.171179995, "yes": 49, "no": 50, "missing": 49 , "children": [
            { "nodeid": 49, "leaf": -0.0264797509 }, 
            { "nodeid": 50, "leaf": 0.0926261768 }
          ]}, 
          { "nodeid": 28, "leaf": -0.171772301 }
        ]}, 
        { "nodeid": 14, "depth": 3, "split": 3, "split_condition": 0.244439989, "yes": 29, "no": 30, "missing": 29 , "children": [
          { "nodeid": 29, "leaf": -0.1869611 }, 
          { "nodeid": 30, "depth": 4, "split": 0, "split_condition": 0.736348987, "yes": 51, "no": 52, "missing": 51 , "children": [
            { "nodeid": 51, "depth": 5, "split": 1, "split_condition": 0.696969509, "yes": 77, "no": 78, "missing": 77 , "children": [
              { "nodeid": 77, "depth": 6, "split": 6, "split_condition": 0.150672495, "yes": 105, "no": 106, "missing": 105 , "children": [
                { "nodeid": 105, "leaf": -0.0907055438 }, 
                { "nodeid": 106, "depth": 7, "split": 5, "split_condition": 0.401366502, "yes": 141, "no": 142, "missing": 141 , "children": [
                  { "nodeid": 141, "leaf": 0.0516741537 }, 
                  { "nodeid": 142, "leaf": 0.157744661 }
                ]}
              ]}, 
              { "nodeid": 78, "depth": 6, "split": 5, "split_condition": 0.401366502, "yes": 107, "no": 108, "missing": 107 , "children": [
                { "nodeid": 107, "depth": 7, "split": 3, "split_condition": 0.816155493, "yes": 143, "no": 144, "missing": 143 , "children": [
                  { "nodeid": 143, "depth": 8, "split": 2, "split_condition": 0.395794988, "yes": 187, "no": 188, "missing": 187 , "children": [
                    { "nodeid": 187, "depth": 9, "split": 6, "split_condition": 0.233390495, "yes": 239, "no": 240, "missing": 239 , "children": [
                      { "nodeid": 239, "leaf": -0.187641218 }, 
                      { "nodeid": 240, "leaf": -0.149760887 }
                    ]}, 
                    { "nodeid": 188, "depth": 9, "split": 6, "split_condition": 0.150672495, "yes": 241, "no": 242, "missing": 241 , "children": [
                      { "nodeid": 241, "leaf": -0.179722324 }, 
                      { "nodeid": 242, "leaf": -0.0179255158 }
                    ]}
                  ]}, 
                  { "nodeid": 144, "depth": 8, "split": 6, "split_condition": 0.220061988, "yes": 189, "no": 190, "missing": 189 , "children": [
                    { "nodeid": 189, "leaf": -0.0537733696 }, 
                    { "nodeid": 190, "leaf": 0.112138189 }
                  ]}
                ]}, 
                { "nodeid": 108, "depth": 7, "split": 4, "split_condition": 0.446695, "yes": 145, "no": 146, "missing": 145 , "children": [
                  { "nodeid": 145, "leaf": 0.128508821 }, 
                  { "nodeid": 146, "depth": 8, "split": 6, "split_condition": 0.292582005, "yes": 191, "no": 192, "missing": 191 , "children": [
                    { "nodeid": 191, "depth": 9, "split": 3, "split_condition": 0.373888999, "yes": 245, "no": 246, "missing": 245 , "children": [
                      { "nodeid": 245, "leaf": -0.117548779 }, 
                      { "nodeid": 246, "leaf": 0.00476360461 }
                    ]}, 
                    { "nodeid": 192, "depth": 9, "split": 4, "split_condition": 0.723410487, "yes": 247, "no": 248, "missing": 247 , "children": [
                      { "nodeid": 247, "leaf": 0.0488074794 }, 
                      { "nodeid": 248, "leaf": -0.0487208143 }
                    ]}
                  ]}
                ]}
              ]}
            ]}, 
            { "nodeid": 52, "leaf": -0.191548392 }
          ]}
        ]}
      ]}
    ]}
  ]},
  { "nodeid": 0, "depth": 0, "split": 0, "split_condition": 0.650696039, "yes": 1, "no": 2, "missing": 1 , "children": [
    { "nodeid": 1, "depth": 1, "split": 7, "split_condition": 0.875174522, "yes": 3, "no": 4, "missing": 3 , "children": [
      { "nodeid": 3, "depth": 2, "split": 4, "split_condition": 0.941666961, "yes": 7, "no": 8, "missing": 7 , "children": [
        { "nodeid": 7, "depth": 3, "split": 6, "split_condition": 0.151674002, "yes": 15, "no": 16, "missing": 15 , "children": [
          { "nodeid": 15, "depth": 4, "split": 3, "split_condition": 0.228576511, "yes": 31, "no": 32, "missing": 31 , "children": [
            { "nodeid": 31, "depth": 5, "split": 0, "split_condition": 0.577890515, "yes": 53, "no": 54, "missing": 53 , "children": [
              { "nodeid": 53, "leaf": 0.0834823474 }, 
              { "nodeid": 54, "leaf": -0.136651084 }
            ]}, 
            { "nodeid": 32, "leaf": 0.158870205 }
          ]}, 
          { "nodeid": 16, "depth": 4, "split": 1, "split_condition": 0.477272511, "yes": 33, "no": 34, "missing": 33 , "children": [
            { "nodeid": 33, "leaf": 0.0910294652 }, 
            { "nodeid": 34, "depth": 5, "split": 5, "split_condition": 0.119993001, "yes": 55, "no": 56, "missing": 55 , "children": [
              { "nodeid": 55, "depth": 6, "split": 0, "split_condition": 0.551391959, "yes": 81, "no": 82, "missing": 81 , "children": [
                { "nodeid": 81, "leaf": 0.108467653 }, 
                { "nodeid": 82, "leaf": -0.109611951 }
              ]}, 
              { "nodeid": 56, "depth": 6, "split": 3, "split_condition": 0.518253505, "yes": 83, "no": 84, "missing": 83 , "children": [
                { "nodeid": 83, "depth": 7, "split": 1, "split_condition": 0.856060505, "yes": 115, "no": 116, "missing": 115 , "children": [
                  { "nodeid": 115, "depth": 8, "split": 4, "split_condition": 0.522984505, "yes": 157, "no": 158, "missing": 157 , "children": [
                    { "nodeid": 157, "depth": 9, "split": 7, "split_condition": 0.550557494, "yes": 207, "no": 208, "missing": 207 , "children": [
                      { "nodeid": 207, "leaf": 0.060379643 }, 
                      { "nodeid": 208, "leaf": 0.187676519 }
                    ]}, 
                    { "nodeid": 158, "depth": 9, "split": 5, "split_condition": 0.412610501, "yes": 209, "no": 210, "missing": 209 , "children": [
                      { "nodeid": 209, "leaf": 0.144142628 }, 
                      { "nodeid": 210, "leaf": 0.183830902 }
                    ]}
                  ]}, 
                  { "nodeid": 116, "depth": 8, "split": 0, "split_condition": 0.410332024, "yes": 159, "no": 160, "missing": 159 , "children": [
                    { "nodeid": 159, "leaf": 0.108467653 }, 
                    { "nodeid": 160, "depth": 9, "split": 0, "split_condition": 0.558886528, "yes": 211, "no": 212, "missing": 211 , "children": [
                      { "nodeid": 211, "leaf": -0.00615683151 }, 
                      { "nodeid": 212, "leaf": -0.11326953 }
                    ]}
                  ]}
                ]}, 
                { "nodeid": 84, "depth": 7, "split": 6, "split_condition": 0.471931994, "yes": 117, "no": 118, "missing": 117 , "children": [
                  { "nodeid": 117, "leaf": 0.179199874 }, 
                  { "nodeid": 118, "depth": 8, "split": 3, "split_condition": 0.597984016, "yes": 161, "no": 162, "missing": 161 , "children": [
                    { "nodeid": 161, "leaf": 0.00345985079 }, 
                    { "nodeid": 162, "leaf": 0.118114792 }
                  ]}
                ]}
              ]}
            ]}
          ]}
        ]}, 
        { "nodeid": 8, "depth": 3, "split": 0, "split_condition": 0.480460525, "yes": 17, "no": 18, "missing": 17 , "children": [
          { "nodeid": 17, "leaf": 0.172366813 }, 
          { "nodeid": 18, "leaf": -0.161120579 }
        ]}
      ]}, 
      { "nodeid": 4, "depth": 2, "split": 0, "split_condition": 0.557013035, "yes": 9, "no": 10, "missing": 9 , "children": [
        { "nodeid": 9, "depth": 3, "split": 4, "split_condition": 0.849087954, "yes": 19, "no": 20, "missing": 19 , "children": [
          { "nodeid": 19, "leaf": 0.178286523 }, 
          { "nodeid": 20, "depth": 4, "split": 0, "split_condition": 0.29389751, "yes": 35, "no": 36, "missing": 35 , "children": [
            { "nodeid": 35, "leaf": 0.116613463 }, 
            { "nodeid": 36, "depth": 5, "split": 1, "split_condition": 0.848484516, "yes": 57, "no": 58, "missing": 57 , "children": [
              { "nodeid": 57, "leaf": 0.0244898852 }, 
              { "nodeid": 58, "leaf": -0.132476449 }
            ]}
          ]}
        ]}, 
        { "nodeid": 10, "depth": 3, "split": 5, "split_condition": 0.190499499, "yes": 21, "no": 22, "missing": 21 , "children": [
          { "nodeid": 21, "depth": 4, "split": 1, "split_condition": 0.689393997, "yes": 37, "no": 38, "missing": 37 , "children": [
            { "nodeid": 37, "leaf": 0.0851720423 }, 
            { "nodeid": 38, "depth": 5, "split": 4, "split_condition": 0.449028015, "yes": 59, "no": 60, "missing": 59 , "children": [
              { "nodeid": 59, "leaf": -0.0175097287 }, 
              { "nodeid": 60, "leaf": -0.17141597 }
            ]}
          ]}, 
          { "nodeid": 22, "depth": 4, "split": 3, "split_condition": 0.244329989, "yes": 39, "no": 40, "missing": 39 , "children": [
            { "nodeid": 39, "leaf": 0.0203762501 }, 
            { "nodeid": 40, "leaf": 0.147774577 }
          ]}
        ]}
      ]}
    ]}, 
    { "nodeid": 2, "depth": 1, "split": 1, "split_condition": 0.606060505, "yes": 5, "no": 6, "missing": 5 , "children": [
      { "nodeid": 5, "depth": 2, "split": 0, "split_condition": 0.789882481, "yes": 11, "no": 12, "missing": 11 , "children": [
        { "nodeid": 11, "depth": 3, "split": 1, "split_condition": 0.204545498, "yes": 23, "no": 24, "missing": 23 , "children": [
          { "nodeid": 23, "depth": 4, "split": 3, "split_condition": 0.491867989, "yes": 41, "no": 42, "missing": 41 , "children": [
            { "nodeid": 41, "depth": 5, "split": 5, "split_condition": 0.464725494, "yes": 63, "no": 64, "missing": 63 , "children": [
              { "nodeid": 63, "depth": 6, "split": 6, "split_condition": 0.491867989, "yes": 85, "no": 86, "missing": 85 , "children": [
                { "nodeid": 85, "depth": 7, "split": 4, "split_condition": 0.59324348, "yes": 119, "no": 120, "missing": 119 , "children": [
                  { "nodeid": 119, "depth": 8, "split": 2, "split_condition": 0.313278496, "yes": 163, "no": 164, "missing": 163 , "children": [
                    { "nodeid": 163, "depth": 9, "split": 6, "split_condition": 0.324593008, "yes": 213, "no": 214, "missing": 213 , "children": [
                      { "nodeid": 213, "leaf": 0.121620558 }, 
                      { "nodeid": 214, "leaf": 0.0821459368 }
                    ]}, 
                    { "nodeid": 164, "leaf": 0.148423359 }
                  ]}, 
                  { "nodeid": 120, "depth": 8, "split": 7, "split_condition": 0.804610014, "yes": 165, "no": 166, "missing": 165 , "children": [
                    { "nodeid": 165, "depth": 9, "split": 5, "split_condition": 0.284186482, "yes": 217, "no": 218, "missing": 217 , "children": [
                      { "nodeid": 217, "leaf": 0.0702317357 }, 
                      { "nodeid": 218, "leaf": 0.12706463 }
                    ]}, 
                    { "nodeid": 166, "depth": 9, "split": 5, "split_condition": 0.138128996, "yes": 219, "no": 220, "missing": 219 , "children": [
                      { "nodeid": 219, "leaf": -0.0191197395 }, 
                      { "nodeid": 220, "leaf": 0.049605418 }
                    ]}
                  ]}
                ]}, 
                { "nodeid": 86, "depth": 7, "split": 2, "split_condition": 0.207702994, "yes": 121, "no": 122, "missing": 121 , "children": [
                  { "nodeid": 121, "leaf": 0.130411014 }, 
                  { "nodeid": 122, "leaf": 0.172676042 }
                ]}
              ]}, 
              { "nodeid": 64, "leaf": 0.177220866 }
            ]}, 
            { "nodeid": 42, "depth": 5, "split": 2, "split_condition": 0.0751330033, "yes": 65, "no": 66, "missing": 65 , "children": [
              { "nodeid": 65, "depth": 6, "split": 5, "split_condition": 0.276387513, "yes": 87, "no": 88, "missing": 87 , "children": [
                { "nodeid": 87, "depth": 7, "split": 6, "split_condition": 0.389627993, "yes": 123, "no": 124, "missing": 123 , "children": [
                  { "nodeid": 123, "depth": 8, "split": 7, "split_condition": 0.704521537, "yes": 167, "no": 168, "missing": 167 , "children": [
                    { "nodeid": 167, "leaf": 0.108467653 }, 
                    { "nodeid": 168, "leaf": 0.0124626793 }
                  ]}, 
                  { "nodeid": 124, "leaf": -0.0102006067 }
                ]}, 
                { "nodeid": 88, "leaf": 0.129850805 }
              ]}, 
              { "nodeid": 66, "leaf": 0.168171585 }
            ]}
          ]}, 
          { "nodeid": 24, "depth": 4, "split": 7, "split_condition": 0.40804702, "yes": 43, "no": 44, "missing": 43 , "children": [
            { "nodeid": 43, "leaf": 0.169800371 }, 
            { "nodeid": 44, "depth": 5, "split": 2, "split_condition": 0.458562493, "yes": 67, "no": 68, "missing": 67 , "children": [
              { "nodeid": 67, "depth": 6, "split": 5, "split_condition": 0.418439507, "yes": 89, "no": 90, "missing": 89 , "children": [
                { "nodeid": 89, "depth": 7, "split": 3, "split_condition": 0.502287507, "yes": 125, "no": 126, "missing": 125 , "children": [
                  { "nodeid": 125, "depth": 8, "split": 7, "split_condition": 0.864580035, "yes": 171, "no": 172, "missing": 171 , "children": [
                    { "nodeid": 171, "depth": 9, "split": 7, "split_condition": 0.48278749, "yes": 225, "no": 226, "missing": 225 , "children": [
                      { "nodeid": 225, "leaf": 0.112960652 }, 
                      { "nodeid": 226, "leaf": -0.0016805504 }
                    ]}, 
                    { "nodeid": 172, "depth": 9, "split": 3, "split_condition": 0.346542507, "yes": 227, "no": 228, "missing": 227 , "children": [
                      { "nodeid": 227, "leaf": -0.0754776597 }, 
                      { "nodeid": 228, "leaf": 0.0244898852 }
                    ]}
                  ]}, 
                  { "nodeid": 126, "depth": 8, "split": 6, "split_condition": 0.460057497, "yes": 173, "no": 174, "missing": 173 , "children": [
                    { "nodeid": 173, "leaf": 0.0967819914 }, 
                    { "nodeid": 174, "leaf": 0.00414910819 }
                  ]}
                ]}, 
                { "nodeid": 90, "depth": 7, "split": 3, "split_condition": 0.226223499, "yes": 127, "no": 128, "missing": 127 , "children": [
                  { "nodeid": 127, "leaf": 0.0367636904 }, 
                  { "nodeid": 128, "leaf": 0.129850805 }
                ]}
              ]}, 
              { "nodeid": 68, "depth": 6, "split": 6, "split_condition": 0.249265999, "yes": 91, "no": 92, "missing": 91 , "children": [
                { "nodeid": 91, "leaf": 0.038652122 }, 
                { "nodeid": 92, "leaf": 0.148803428 }
              ]}
            ]}
          ]}
        ]}, 
        { "nodeid": 12, "depth": 3, "split": 5, "split_condition": 0.565977454, "yes": 25, "no": 26, "missing": 25 , "children": [
          { "nodeid": 25, "depth": 4, "split": 2, "split_condition": 0.501156509, "yes": 45, "no": 46, "missing": 45 , "children": [
            { "nodeid": 45, "depth": 5, "split": 7, "split_condition": 0.498987496, "yes": 69, "no": 70, "missing": 69 , "children": [
              { "nodeid": 69, "depth": 6, "split": 0, "split_condition": 0.865363955, "yes": 93, "no": 94, "missing": 93 , "children": [
                { "nodeid": 93, "depth": 7, "split": 3, "split_condition": 0.450538993, "yes": 131, "no": 132, "missing": 131 , "children": [
                  { "nodeid": 131, "depth": 8, "split": 1, "split_condition": 0.0454550013, "yes": 175, "no": 176, "missing": 175 , "children": [
                    { "nodeid": 175, "leaf": 0.134120718 }, 
                    { "nodeid": 176, "depth": 9, "split": 6, "split_condition": 0.567901969, "yes": 229, "no": 230, "missing": 229 , "children": [
                      { "nodeid": 229, "leaf": -0.115884162 }, 
                      { "nodeid": 230, "leaf": -0.0613047741 }
                    ]}
                  ]}, 
                  { "nodeid": 132, "depth": 8, "split": 1, "split_condition": 0.204545498, "yes": 177, "no": 178, "missing": 177 , "children": [
                    { "nodeid": 177, "depth": 9, "split": 7, "split_condition": 0.394656003, "yes": 231, "no": 232, "missing": 231 , "children": [
                      { "nodeid": 231, "leaf": 0.0889326558 }, 
                      { "nodeid": 232, "leaf": 0.00246031256 }
                    ]}, 
                    { "nodeid": 178, "leaf": -0.0875690952 }
                  ]}
                ]}, 
                { "nodeid": 94, "leaf": -0.174435526 }
              ]}, 
              { "nodeid": 70, "depth": 6, "split": 4, "split_condition": 0.366708994, "yes": 95, "no": 96, "missing": 95 , "children": [
                { "nodeid": 95, "depth": 7, "split": 0, "split_condition": 0.869914472, "yes": 133, "no": 134, "missing": 133 , "children": [
                  { "nodeid": 133, "depth": 8, "split": 7, "split_condition": 0.795516014, "yes": 179, "no": 180, "missing": 179 , "children": [
                    { "nodeid": 179, "depth": 9, "split": 6, "split_condition": 0.514832497, "yes": 233, "no": 234, "missing": 233 , "children": [
                      { "nodeid": 233, "leaf": 0.0176307242 }, 
                      { "nodeid": 234, "leaf": 0.116613463 }
                    ]}, 
                    { "nodeid": 180, "leaf": -0.105098225 }
                  ]}, 
                  { "nodeid": 134, "leaf": -0.170128226 }
                ]}, 
                { "nodeid": 96, "depth": 7, "split": 5, "split_condition": 0.428935498, "yes": 135, "no": 136, "missing": 135 , "children": [
                  { "nodeid": 135, "depth": 8, "split": 3, "split_condition": 0.502947986, "yes": 181, "no": 182, "missing": 181 , "children": [
                    { "nodeid": 181, "leaf": -0.170963377 }, 
                    { "nodeid": 182, "depth": 9, "split": 0, "split_condition": 0.849839509, "yes": 239, "no": 240, "missing": 239 , "children": [
                      { "nodeid": 239, "leaf": -0.11234726 }, 
                      { "nodeid": 240, "leaf": -0.178103954 }
                    ]}
                  ]}, 
                  { "nodeid": 136, "depth": 8, "split": 7, "split_condition": 0.587097526, "yes": 183, "no": 184, "missing": 183 , "children": [
                    { "nodeid": 183, "depth": 9, "split": 0, "split_condition": 0.835384965, "yes": 241, "no": 242, "missing": 241 , "children": [
                      { "nodeid": 241, "leaf": -0.0433675908 }, 
                      { "nodeid": 242, "leaf": -0.174366251 }
                    ]}, 
                    { "nodeid": 184, "depth": 9, "split": 0, "split_condition": 0.883298039, "yes": 243, "no": 244, "missing": 243 , "children": [
                      { "nodeid": 243, "leaf": 0.0459634811 }, 
                      { "nodeid": 244, "leaf": -0.170122862 }
                    ]}
                  ]}
                ]}
              ]}
            ]}, 
            { "nodeid": 46, "depth": 5, "split": 0, "split_condition": 0.883029997, "yes": 71, "no": 72, "missing": 71 , "children": [
              { "nodeid": 71, "depth": 6, "split": 4, "split_condition": 0.496379495, "yes": 97, "no": 98, "missing": 97 , "children": [
                { "nodeid": 97, "depth": 7, "split": 2, "split_condition": 0.60926348, "yes": 137, "no": 138, "missing": 137 , "children": [
                  { "nodeid": 137, "depth": 8, "split": 7, "split_condition": 0.774317503, "yes": 185, "no": 186, "missing": 185 , "children": [
                    { "nodeid": 185, "depth": 9, "split": 1, "split_condition": 0.159090996, "yes": 245, "no": 246, "missing": 245 , "children": [
                      { "nodeid": 245, "leaf": 0.0407899879 }, 
                      { "nodeid": 246, "leaf": -0.0964948013 }
                    ]}, 
                    { "nodeid": 186, "depth": 9, "split": 1, "split_condition": 0.0303035006, "yes": 247, "no": 248, "missing": 247 , "children": [
                      { "nodeid": 247, "leaf": 0.0244898852 }, 
                      { "nodeid": 248, "leaf": -0.0983835086 }
                    ]}
                  ]}, 
                  { "nodeid": 138, "depth": 8, "split": 5, "split_condition": 0.348066509, "yes": 187, "no": 188, "missing": 187 , "children": [
                    { "nodeid": 187, "depth": 9, "split": 3, "split_condition": 0.927166998, "yes": 249, "no": 250, "missing": 249 , "children": [
                      { "nodeid": 249, "leaf": 0.0904104337 }, 
                      { "nodeid": 250, "leaf": 0.150346294 }
                    ]}, 
                    { "nodeid": 188, "leaf": 0.177861795 }
                  ]}
                ]}, 
                { "nodeid": 98, "depth": 7, "split": 2, "split_condition": 0.67859149, "yes": 139, "no": 140, "missing": 139 , "children": [
                  { "nodeid": 139, "depth": 8, "split": 3, "split_condition": 0.40071398, "yes": 189, "no": 190, "missing": 189 , "children": [
                    { "nodeid": 189, "depth": 9, "split": 1, "split_condition": 0.439393997, "yes": 251, "no": 252, "missing": 251 , "children": [
                      { "nodeid": 251, "leaf": -0.147646934 }, 
                      { "nodeid": 252, "leaf": -0.100611404 }
                    ]}, 
                    { "nodeid": 190, "depth": 9, "split": 7, "split_condition": 0.485884011, "yes": 253, "no": 254, "missing": 253 , "children": [
                      { "nodeid": 253, "leaf": 0.0550445616 }, 
                      { "nodeid": 254, "leaf": -0.0549480207 }
                    ]}
                  ]}, 
                  { "nodeid": 140, "depth": 8, "split": 6, "split_condition": 0.142639995, "yes": 191, "no": 192, "missing": 191 , "children": [
                    { "nodeid": 191, "leaf": 0.00414910819 }, 
                    { "nodeid": 192, "leaf": 0.115378618 }
                  ]}
                ]}
              ]}, 
              { "nodeid": 72, "depth": 6, "split": 7, "split_condition": 0.394656003, "yes": 99, "no": 100, "missing": 99 , "children": [
                { "nodeid": 99, "leaf": -0.0743597969 }, 
                { "nodeid": 100, "leaf": -0.165942416 }
              ]}
            ]}
          ]}, 
          { "nodeid": 26, "depth": 4, "split": 0, "split_condition": 0.888383508, "yes": 47, "no": 48, "missing": 47 , "children": [
            { "nodeid": 47, "depth": 5, "split": 1, "split_condition": 0.204545498, "yes": 73, "no": 74, "missing": 73 , "children": [
              { "nodeid": 73, "depth": 6, "split": 2, "split_condition": 0.311321974, "yes": 101, "no": 102, "missing": 101 , "children": [
                { "nodeid": 101, "depth": 7, "split": 6, "split_condition": 0.601228952, "yes": 141, "no": 142, "missing": 141 , "children": [
                  { "nodeid": 141, "depth": 8, "split": 3, "split_condition": 0.408230007, "yes": 193, "no": 194, "missing": 193 , "children": [
                    { "nodeid": 193, "leaf": 0.0728962496 }, 
                    { "nodeid": 194, "leaf": 0.151965678 }
                  ]}, 
                  { "nodeid": 142, "depth": 8, "split": 5, "split_condition": 0.728781521, "yes": 195, "no": 196, "missing": 195 , "children": [
                    { "nodeid": 195, "depth": 9, "split": 7, "split_condition": 0.1459205, "yes": 255, "no": 256, "missing": 255 , "children": [
                      { "nodeid": 255, "leaf": -0.0336330384 }, 
                      { "nodeid": 256, "leaf": 0.0459500477 }
                    ]}, 
                    { "nodeid": 196, "depth": 9, "split": 6, "split_condition": 0.927166998, "yes": 257, "no": 258, "missing": 257 , "children": [
                      { "nodeid": 257, "leaf": 0.118398942 }, 
                      { "nodeid": 258, "leaf": 0.0571436547 }
                    ]}
                  ]}
                ]}, 
                { "nodeid": 102, "depth": 7, "split": 2, "split_condition": 0.529616475, "yes": 143, "no": 144, "missing": 143 , "children": [
                  { "nodeid": 143, "leaf": 0.157414958 }, 
                  { "nodeid": 144, "depth": 8, "split": 3, "split_condition": 0.601228952, "yes": 197, "no": 198, "missing": 197 , "children": [
                    { "nodeid": 197, "depth": 9, "split": 4, "split_condition": 0.425601006, "yes": 259, "no": 260, "missing": 259 , "children": [
                      { "nodeid": 259, "leaf": 0.0574795566 }, 
                      { "nodeid": 260, "leaf": -0.0130681638 }
                    ]}, 
                    { "nodeid": 198, "leaf": 0.0783426762 }
                  ]}
                ]}
              ]}, 
              { "nodeid": 74, "depth": 6, "split": 1, "split_condition": 0.424242496, "yes": 103, "no": 104, "missing": 103 , "children": [
                { "nodeid": 103, "depth": 7, "split": 4, "split_condition": 0.598698497, "yes": 145, "no": 146, "missing": 145 , "children": [
                  { "nodeid": 145, "leaf": -0.0130681638 }, 
                  { "nodeid": 146, "leaf": -0.0596119128 }
                ]}, 
                { "nodeid": 104, "depth": 7, "split": 3, "split_condition": 0.631286979, "yes": 147, "no": 148, "missing": 147 , "children": [
                  { "nodeid": 147, "leaf": -0.142723843 }, 
                  { "nodeid": 148, "leaf": -0.0338976607 }
                ]}
              ]}
            ]}, 
            { "nodeid": 48, "depth": 5, "split": 4, "split_condition": 0.498987496, "yes": 75, "no": 76, "missing": 75 , "children": [
              { "nodeid": 75, "depth": 6, "split": 2, "split_condition": 0.663911521, "yes": 105, "no": 106, "missing": 105 , "children": [
                { "nodeid": 105, "depth": 7, "split": 4, "split_condition": 0.360655993, "yes": 149, "no": 150, "missing": 149 , "children": [
                  { "nodeid": 149, "leaf": -0.0732684284 }, 
                  { "nodeid": 150, "leaf": -0.122556828 }
                ]}, 
                { "nodeid": 106, "leaf": -0.0666306242 }
              ]}, 
              { "nodeid": 76, "depth": 6, "split": 2, "split_condition": 0.559757471, "yes": 107, "no": 108, "missing": 107 , "children": [
                { "nodeid": 107, "leaf": -0.174452633 }, 
                { "nodeid": 108, "leaf": -0.0487699062 }
              ]}
            ]}
          ]}
        ]}
      ]}, 
      { "nodeid": 6, "depth": 2, "split": 4, "split_condition": 0.306412011, "yes": 13, "no": 14, "missing": 13 , "children": [
        { "nodeid": 13, "depth": 3, "split": 0, "split_condition": 0.775428534, "yes": 27, "no": 28, "missing": 27 , "children": [
          { "nodeid": 27, "depth": 4, "split": 6, "split_condition": 0.171179995, "yes": 49, "no": 50, "missing": 49 , "children": [
            { "nodeid": 49, "depth": 5, "split": 7, "split_condition": 0.847457528, "yes": 77, "no": 78, "missing": 77 , "children": [
              { "nodeid": 77, "depth": 6, "split": 0, "split_condition": 0.705031991, "yes": 109, "no": 110, "missing": 109 , "children": [
                { "nodeid": 109, "leaf": 0.116422012 }, 
                { "nodeid": 110, "leaf": -0.059527792 }
              ]}, 
              { "nodeid": 78, "leaf": -0.0605491064 }
            ]}, 
            { "nodeid": 50, "leaf": 0.0834580585 }
          ]}, 
          { "nodeid": 28, "leaf": -0.15692912 }
        ]}, 
        { "nodeid": 14, "depth": 3, "split": 3, "split_condition": 0.244439989, "yes": 29, "no": 30, "missing": 29 , "children": [
          { "nodeid": 29, "leaf": -0.170927197 }, 
          { "nodeid": 30, "depth": 4, "split": 0, "split_condition": 0.736348987, "yes": 51, "no": 52, "missing": 51 , "children": [
            { "nodeid": 51, "depth": 5, "split": 1, "split_condition": 0.696969509, "yes": 79, "no": 80, "missing": 79 , "children": [
              { "nodeid": 79, "depth": 6, "split": 6, "split_condition": 0.150672495, "yes": 111, "no": 112, "missing": 111 , "children": [
                { "nodeid": 111, "leaf": -0.0833563134 }, 
                { "nodeid": 112, "leaf": 0.0561506711 }
              ]}, 
              { "nodeid": 80, "depth": 6, "split": 5, "split_condition": 0.401366502, "yes": 113, "no": 114, "missing": 113 , "children": [
                { "nodeid": 113, "depth": 7, "split": 3, "split_condition": 0.816155493, "yes": 153, "no": 154, "missing": 153 , "children": [
                  { "nodeid": 153, "depth": 8, "split": 2, "split_condition": 0.395794988, "yes": 199, "no": 200, "missing": 199 , "children": [
                    { "nodeid": 199, "depth": 9, "split": 6, "split_condition": 0.222415, "yes": 261, "no": 262, "missing": 261 , "children": [
                      { "nodeid": 261, "leaf": -0.170827731 }, 
                      { "nodeid": 262, "leaf": -0.137324914 }
                    ]}, 
                    { "nodeid": 200, "depth": 9, "split": 6, "split_condition": 0.150672495, "yes": 263, "no": 264, "missing": 263 , "children": [
                      { "nodeid": 263, "leaf": -0.164882049 }, 
                      { "nodeid": 264, "leaf": -0.0161547884 }
                    ]}
                  ]}, 
                  { "nodeid": 154, "depth": 8, "split": 6, "split_condition": 0.220061988, "yes": 201, "no": 202, "missing": 201 , "children": [
                    { "nodeid": 201, "leaf": -0.0497625209 }, 
                    { "nodeid": 202, "leaf": 0.101740614 }
                  ]}
                ]}, 
                { "nodeid": 114, "depth": 7, "split": 3, "split_condition": 0.597984016, "yes": 155, "no": 156, "missing": 155 , "children": [
                  { "nodeid": 155, "depth": 8, "split": 6, "split_condition": 0.292582005, "yes": 203, "no": 204, "missing": 203 , "children": [
                    { "nodeid": 203, "depth": 9, "split": 3, "split_condition": 0.373888999, "yes": 269, "no": 270, "missing": 269 , "children": [
                      { "nodeid": 269, "leaf": -0.10830684 }, 
                      { "nodeid": 270, "leaf": 0.0281147659 }
                    ]}, 
                    { "nodeid": 204, "depth": 9, "split": 7, "split_condition": 0.440499991, "yes": 271, "no": 272, "missing": 271 , "children": [
                      { "nodeid": 271, "leaf": 0.000971973524 }, 
                      { "nodeid": 272, "leaf": 0.0331207924 }
                    ]}
                  ]}, 
                  { "nodeid": 156, "depth": 8, "split": 4, "split_condition": 0.412161499, "yes": 205, "no": 206, "missing": 205 , "children": [
                    { "nodeid": 205, "leaf": 0.123413339 }, 
                    { "nodeid": 206, "leaf": 0.0214296989 }
                  ]}
                ]}
              ]}
            ]}, 
            { "nodeid": 52, "leaf": -0.175217152 }
          ]}
        ]}
      ]}
    ]}
  ]},
  { "nodeid": 0, "depth": 0, "split": 0, "split_condition": 0.650696039, "yes": 1, "no": 2, "missing": 1 , "children": [
    { "nodeid": 1, "depth": 1, "split": 7, "split_condition": 0.875174522, "yes": 3, "no": 4, "missing": 3 , "children": [
      { "nodeid": 3, "depth": 2, "split": 4, "split_condition": 0.941666961, "yes": 7, "no": 8, "missing": 7 , "children": [
        { "nodeid": 7, "depth": 3, "split": 6, "split_condition": 0.151674002, "yes": 15, "no": 16, "missing": 15 , "children": [
          { "nodeid": 15, "depth": 4, "split": 3, "split_condition": 0.228576511, "yes": 31, "no": 32, "missing": 31 , "children": [
            { "nodeid": 31, "depth": 5, "split": 0, "split_condition": 0.577890515, "yes": 53, "no": 54, "missing": 53 , "children": [
              { "nodeid": 53, "leaf": 0.0756210983 }, 
              { "nodeid": 54, "leaf": -0.126198202 }
            ]}, 
            { "nodeid": 32, "leaf": 0.14556627 }
          ]}, 
          { "nodeid": 16, "depth": 4, "split": 1, "split_condition": 0.477272511, "yes": 33, "no": 34, "missing": 33 , "children": [
            { "nodeid": 33, "leaf": 0.0826426893 }, 
            { "nodeid": 34, "depth": 5, "split": 5, "split_condition": 0.119993001, "yes": 55, "no": 56, "missing": 55 , "children": [
              { "nodeid": 55, "depth": 6, "split": 0, "split_condition": 0.551391959, "yes": 81, "no": 82, "missing": 81 , "children": [
                { "nodeid": 81, "leaf": 0.102772929 }, 
                { "nodeid": 82, "leaf": -0.10389594 }
              ]}, 
              { "nodeid": 56, "depth": 6, "split": 3, "split_condition": 0.597984016, "yes": 83, "no": 84, "missing": 83 , "children": [
                { "nodeid": 83, "depth": 7, "split": 1, "split_condition": 0.856060505, "yes": 113, "no": 114, "missing": 113 , "children": [
                  { "nodeid": 113, "leaf": 0.135113984 }, 
                  { "nodeid": 114, "depth": 8, "split": 0, "split_condition": 0.410332024, "yes": 151, "no": 152, "missing": 151 , "children": [
                    { "nodeid": 151, "leaf": 0.102772929 }, 
                    { "nodeid": 152, "depth": 9, "split": 6, "split_condition": 0.218349501, "yes": 197, "no": 198, "missing": 197 , "children": [
                      { "nodeid": 197, "leaf": -0.0812334418 }, 
                      { "nodeid": 198, "leaf": -0.0207371023 }
                    ]}
                  ]}
                ]}, 
                { "nodeid": 84, "leaf": 0.164839268 }
              ]}
            ]}
          ]}
        ]}, 
        { "nodeid": 8, "depth": 3, "split": 0, "split_condition": 0.480460525, "yes": 17, "no": 18, "missing": 17 , "children": [
          { "nodeid": 17, "leaf": 0.159310907 }, 
          { "nodeid": 18, "leaf": -0.149761781 }
        ]}
      ]}, 
      { "nodeid": 4, "depth": 2, "split": 0, "split_condition": 0.557013035, "yes": 9, "no": 10, "missing": 9 , "children": [
        { "nodeid": 9, "depth": 3, "split": 4, "split_condition": 0.849087954, "yes": 19, "no": 20, "missing": 19 , "children": [
          { "nodeid": 19, "leaf": 0.164006382 }, 
          { "nodeid": 20, "depth": 4, "split": 0, "split_condition": 0.29389751, "yes": 35, "no": 36, "missing": 35 , "children": [
            { "nodeid": 35, "leaf": 0.110081948 }, 
            { "nodeid": 36, "depth": 5, "split": 1, "split_condition": 0.848484516, "yes": 57, "no": 58, "missing": 57 , "children": [
              { "nodeid": 57, "leaf": 0.0231248345 }, 
              { "nodeid": 58, "leaf": -0.124501161 }
            ]}
          ]}
        ]}, 
        { "nodeid": 10, "depth": 3, "split": 5, "split_condition": 0.190499499, "yes": 21, "no": 22, "missing": 21 , "children": [
          { "nodeid": 21, "depth": 4, "split": 1, "split_condition": 0.689393997, "yes": 37, "no": 38, "missing": 37 , "children": [
            { "nodeid": 37, "leaf": 0.0779293627 }, 
            { "nodeid": 38, "depth": 5, "split": 4, "split_condition": 0.449028015, "yes": 59, "no": 60, "missing": 59 , "children": [
              { "nodeid": 59, "leaf": -0.0165456738 }, 
              { "nodeid": 60, "leaf": -0.159223244 }
            ]}
          ]}, 
          { "nodeid": 22, "depth": 4, "split": 3, "split_condition": 0.244329989, "yes": 39, "no": 40, "missing": 39 , "children": [
            { "nodeid": 39, "leaf": 0.018672606 }, 
            { "nodeid": 40, "leaf": 0.136694267 }
          ]}
        ]}
      ]}
    ]}, 
    { "nodeid": 2, "depth": 1, "split": 1, "split_condition": 0.606060505, "yes": 5, "no": 6, "missing": 5 , "children": [
      { "nodeid": 5, "depth": 2, "split": 0, "split_condition": 0.790417492, "yes": 11, "no": 12, "missing": 11 , "children": [
        { "nodeid": 11, "depth": 3, "split": 1, "split_condition": 0.204545498, "yes": 23, "no": 24, "missing": 23 , "children": [
          { "nodeid": 23, "depth": 4, "split": 3, "split_condition": 0.491867989, "yes": 41, "no": 42, "missing": 41 , "children": [
            { "nodeid": 41, "depth": 5, "split": 5, "split_condition": 0.464725494, "yes": 63, "no": 64, "missing": 63 , "children": [
              { "nodeid": 63, "depth": 6, "split": 7, "split_condition": 0.498987496, "yes": 85, "no": 86, "missing": 85 , "children": [
                { "nodeid": 85, "depth": 7, "split": 2, "split_condition": 0.173119009, "yes": 115, "no": 116, "missing": 115 , "children": [
                  { "nodeid": 115, "depth": 8, "split": 5, "split_condition": 0.393000513, "yes": 153, "no": 154, "missing": 153 , "children": [
                    { "nodeid": 153, "leaf": 0.0625671223 }, 
                    { "nodeid": 154, "leaf": 0.154857382 }
                  ]}, 
                  { "nodeid": 116, "leaf": 0.166863695 }
                ]}, 
                { "nodeid": 86, "depth": 7, "split": 7, "split_condition": 0.804610014, "yes": 117, "no": 118, "missing": 117 , "children": [
                  { "nodeid": 117, "depth": 8, "split": 2, "split_condition": 0.207702994, "yes": 155, "no": 156, "missing": 155 , "children": [
                    { "nodeid": 155, "depth": 9, "split": 5, "split_condition": 0.284186482, "yes": 199, "no": 200, "missing": 199 , "children": [
                      { "nodeid": 199, "leaf": 0.028812414 }, 
                      { "nodeid": 200, "leaf": 0.106861018 }
                    ]}, 
                    { "nodeid": 156, "leaf": 0.115470611 }
                  ]}, 
                  { "nodeid": 118, "depth": 8, "split": 5, "split_condition": 0.138128996, "yes": 157, "no": 158, "missing": 157 , "children": [
                    { "nodeid": 157, "depth": 9, "split": 4, "split_condition": 0.587558985, "yes": 201, "no": 202, "missing": 201 , "children": [
                      { "nodeid": 201, "leaf": 0.0600644834 }, 
                      { "nodeid": 202, "leaf": -0.0182350315 }
                    ]}, 
                    { "nodeid": 158, "depth": 9, "split": 4, "split_condition": 0.59324348, "yes": 203, "no": 204, "missing": 203 , "children": [
                      { "nodeid": 203, "leaf": 0.143102303 }, 
                      { "nodeid": 204, "leaf": 0.0429600552 }
                    ]}
                  ]}
                ]}
              ]}, 
              { "nodeid": 64, "leaf": 0.164439961 }
            ]}, 
            { "nodeid": 42, "depth": 5, "split": 2, "split_condition": 0.0751330033, "yes": 65, "no": 66, "missing": 65 , "children": [
              { "nodeid": 65, "depth": 6, "split": 5, "split_condition": 0.276387513, "yes": 87, "no": 88, "missing": 87 , "children": [
                { "nodeid": 87, "depth": 7, "split": 6, "split_condition": 0.389627993, "yes": 119, "no": 120, "missing": 119 , "children": [
                  { "nodeid": 119, "depth": 8, "split": 7, "split_condition": 0.704521537, "yes": 159, "no": 160, "missing": 159 , "children": [
                    { "nodeid": 159, "leaf": 0.102772929 }, 
                    { "nodeid": 160, "leaf": 0.0114129763 }
                  ]}, 
                  { "nodeid": 120, "leaf": -0.00935423747 }
                ]}, 
                { "nodeid": 88, "leaf": 0.124529436 }
              ]}, 
              { "nodeid": 66, "leaf": 0.153534636 }
            ]}
          ]}, 
          { "nodeid": 24, "depth": 4, "split": 7, "split_condition": 0.40804702, "yes": 43, "no": 44, "missing": 43 , "children": [
            { "nodeid": 43, "leaf": 0.160460234 }, 
            { "nodeid": 44, "depth": 5, "split": 2, "split_condition": 0.458562493, "yes": 67, "no": 68, "missing": 67 , "children": [
              { "nodeid": 67, "depth": 6, "split": 5, "split_condition": 0.418439507, "yes": 89, "no": 90, "missing": 89 , "children": [
                { "nodeid": 89, "depth": 7, "split": 3, "split_condition": 0.502287507, "yes": 121, "no": 122, "missing": 121 , "children": [
                  { "nodeid": 121, "depth": 8, "split": 7, "split_condition": 0.864580035, "yes": 163, "no": 164, "missing": 163 , "children": [
                    { "nodeid": 163, "depth": 9, "split": 7, "split_condition": 0.48278749, "yes": 209, "no": 210, "missing": 209 , "children": [
                      { "nodeid": 209, "leaf": 0.106770016 }, 
                      { "nodeid": 210, "leaf": -0.0015138475 }
                    ]}, 
                    { "nodeid": 164, "depth": 9, "split": 3, "split_condition": 0.346542507, "yes": 211, "no": 212, "missing": 211 , "children": [
                      { "nodeid": 211, "leaf": -0.0704616606 }, 
                      { "nodeid": 212, "leaf": 0.0231248345 }
                    ]}
                  ]}, 
                  { "nodeid": 122, "depth": 8, "split": 6, "split_condition": 0.460057497, "yes": 165, "no": 166, "missing": 165 , "children": [
                    { "nodeid": 165, "leaf": 0.0890440419 }, 
                    { "nodeid": 166, "leaf": 0.00387224439 }
                  ]}
                ]}, 
                { "nodeid": 90, "depth": 7, "split": 3, "split_condition": 0.226223499, "yes": 123, "no": 124, "missing": 123 , "children": [
                  { "nodeid": 123, "leaf": 0.0335897952 }, 
                  { "nodeid": 124, "leaf": 0.119896762 }
                ]}
              ]}, 
              { "nodeid": 68, "leaf": 0.119359039 }
            ]}
          ]}
        ]}, 
        { "nodeid": 12, "depth": 3, "split": 5, "split_condition": 0.565977454, "yes": 25, "no": 26, "missing": 25 , "children": [
          { "nodeid": 25, "depth": 4, "split": 2, "split_condition": 0.501156509, "yes": 45, "no": 46, "missing": 45 , "children": [
            { "nodeid": 45, "depth": 5, "split": 7, "split_condition": 0.498987496, "yes": 69, "no": 70, "missing": 69 , "children": [
              { "nodeid": 69, "depth": 6, "split": 0, "split_condition": 0.876070499, "yes": 91, "no": 92, "missing": 91 , "children": [
                { "nodeid": 91, "depth": 7, "split": 1, "split_condition": 0.204545498, "yes": 125, "no": 126, "missing": 125 , "children": [
                  { "nodeid": 125, "depth": 8, "split": 3, "split_condition": 0.642403007, "yes": 167, "no": 168, "missing": 167 , "children": [
                    { "nodeid": 167, "depth": 9, "split": 6, "split_condition": 0.554459989, "yes": 213, "no": 214, "missing": 213 , "children": [
                      { "nodeid": 213, "leaf": -0.100997411 }, 
                      { "nodeid": 214, "leaf": -0.0285911951 }
                    ]}, 
                    { "nodeid": 168, "leaf": 0.106910489 }
                  ]}, 
                  { "nodeid": 126, "leaf": -0.149967059 }
                ]}, 
                { "nodeid": 92, "leaf": -0.162011608 }
              ]}, 
              { "nodeid": 70, "depth": 6, "split": 4, "split_condition": 0.366708994, "yes": 93, "no": 94, "missing": 93 , "children": [
                { "nodeid": 93, "depth": 7, "split": 0, "split_condition": 0.869914472, "yes": 127, "no": 128, "missing": 127 , "children": [
                  { "nodeid": 127, "depth": 8, "split": 7, "split_condition": 0.795516014, "yes": 169, "no": 170, "missing": 169 , "children": [
                    { "nodeid": 169, "depth": 9, "split": 6, "split_condition": 0.514832497, "yes": 215, "no": 216, "missing": 215 , "children": [
                      { "nodeid": 215, "leaf": 0.0159280952 }, 
                      { "nodeid": 216, "leaf": 0.110081948 }
                    ]}, 
                    { "nodeid": 170, "depth": 9, "split": 3, "split_condition": 0.757370472, "yes": 217, "no": 218, "missing": 217 , "children": [
                      { "nodeid": 217, "leaf": -0.116261281 }, 
                      { "nodeid": 218, "leaf": -0.0465169065 }
                    ]}
                  ]}, 
                  { "nodeid": 128, "leaf": -0.15810129 }
                ]}, 
                { "nodeid": 94, "depth": 7, "split": 5, "split_condition": 0.428935498, "yes": 129, "no": 130, "missing": 129 , "children": [
                  { "nodeid": 129, "depth": 8, "split": 4, "split_condition": 0.700293005, "yes": 171, "no": 172, "missing": 171 , "children": [
                    { "nodeid": 171, "depth": 9, "split": 3, "split_condition": 0.643148541, "yes": 219, "no": 220, "missing": 219 , "children": [
                      { "nodeid": 219, "leaf": -0.151595011 }, 
                      { "nodeid": 220, "leaf": -0.106346563 }
                    ]}, 
                    { "nodeid": 172, "leaf": -0.163798824 }
                  ]}, 
                  { "nodeid": 130, "depth": 8, "split": 7, "split_condition": 0.587097526, "yes": 173, "no": 174, "missing": 173 , "children": [
                    { "nodeid": 173, "depth": 9, "split": 0, "split_condition": 0.835384965, "yes": 221, "no": 222, "missing": 221 , "children": [
                      { "nodeid": 221, "leaf": -0.0393813886 }, 
                      { "nodeid": 222, "leaf": -0.162117377 }
                    ]}, 
                    { "nodeid": 174, "depth": 9, "split": 0, "split_condition": 0.883298039, "yes": 223, "no": 224, "missing": 223 , "children": [
                      { "nodeid": 223, "leaf": 0.0415440015 }, 
                      { "nodeid": 224, "leaf": -0.158289313 }
                    ]}
                  ]}
                ]}
              ]}
            ]}, 
            { "nodeid": 46, "depth": 5, "split": 0, "split_condition": 0.883029997, "yes": 71, "no": 72, "missing": 71 , "children": [
              { "nodeid": 71, "depth": 6, "split": 4, "split_condition": 0.496379495, "yes": 95, "no": 96, "missing": 95 , "children": [
                { "nodeid": 95, "depth": 7, "split": 2, "split_condition": 0.60926348, "yes": 131, "no": 132, "missing": 131 , "children": [
                  { "nodeid": 131, "depth": 8, "split": 6, "split_condition": 0.327008009, "yes": 175, "no": 176, "missing": 175 , "children": [
                    { "nodeid": 175, "depth": 9, "split": 1, "split_condition": 0.060606502, "yes": 225, "no": 226, "missing": 225 , "children": [
                      { "nodeid": 225, "leaf": 0.0551372133 }, 
                      { "nodeid": 226, "leaf": -0.0752700195 }
                    ]}, 
                    { "nodeid": 176, "depth": 9, "split": 3, "split_condition": 0.437051505, "yes": 227, "no": 228, "missing": 227 , "children": [
                      { "nodeid": 227, "leaf": -0.0814051554 }, 
                      { "nodeid": 228, "leaf": 0.063183412 }
                    ]}
                  ]}, 
                  { "nodeid": 132, "depth": 8, "split": 5, "split_condition": 0.348066509, "yes": 177, "no": 178, "missing": 177 , "children": [
                    { "nodeid": 177, "depth": 9, "split": 2, "split_condition": 0.897639036, "yes": 229, "no": 230, "missing": 229 , "children": [
                      { "nodeid": 229, "leaf": 0.0748348907 }, 
                      { "nodeid": 230, "leaf": 0.151789337 }
                    ]}, 
                    { "nodeid": 178, "leaf": 0.16311045 }
                  ]}
                ]}, 
                { "nodeid": 96, "depth": 7, "split": 2, "split_condition": 0.67859149, "yes": 133, "no": 134, "missing": 133 , "children": [
                  { "nodeid": 133, "depth": 8, "split": 3, "split_condition": 0.40071398, "yes": 179, "no": 180, "missing": 179 , "children": [
                    { "nodeid": 179, "depth": 9, "split": 5, "split_condition": 0.305532515, "yes": 231, "no": 232, "missing": 231 , "children": [
                      { "nodeid": 231, "leaf": -0.144897729 }, 
                      { "nodeid": 232, "leaf": -0.0762638226 }
                    ]}, 
                    { "nodeid": 180, "depth": 9, "split": 7, "split_condition": 0.485884011, "yes": 233, "no": 234, "missing": 233 , "children": [
                      { "nodeid": 233, "leaf": 0.0515600219 }, 
                      { "nodeid": 234, "leaf": -0.0541476272 }
                    ]}
                  ]}, 
                  { "nodeid": 134, "depth": 8, "split": 6, "split_condition": 0.142639995, "yes": 181, "no": 182, "missing": 181 , "children": [
                    { "nodeid": 181, "leaf": 0.00387224439 }, 
                    { "nodeid": 182, "leaf": 0.106746696 }
                  ]}
                ]}
              ]}, 
              { "nodeid": 72, "depth": 6, "split": 7, "split_condition": 0.394656003, "yes": 97, "no": 98, "missing": 97 , "children": [
                { "nodeid": 97, "leaf": -0.0677849278 }, 
                { "nodeid": 98, "leaf": -0.153717667 }
              ]}
            ]}
          ]}, 
          { "nodeid": 26, "depth": 4, "split": 0, "split_condition": 0.888383508, "yes": 47, "no": 48, "missing": 47 , "children": [
            { "nodeid": 47, "depth": 5, "split": 1, "split_condition": 0.204545498, "yes": 73, "no": 74, "missing": 73 , "children": [
              { "nodeid": 73, "depth": 6, "split": 2, "split_condition": 0.207702994, "yes": 99, "no": 100, "missing": 99 , "children": [
                { "nodeid": 99, "depth": 7, "split": 6, "split_condition": 0.601228952, "yes": 137, "no": 138, "missing": 137 , "children": [
                  { "nodeid": 137, "depth": 8, "split": 3, "split_condition": 0.401926994, "yes": 183, "no": 184, "missing": 183 , "children": [
                    { "nodeid": 183, "depth": 9, "split": 3, "split_condition": 0.180004001, "yes": 235, "no": 236, "missing": 235 , "children": [
                      { "nodeid": 235, "leaf": -0.0437170528 }, 
                      { "nodeid": 236, "leaf": 0.0460198373 }
                    ]}, 
                    { "nodeid": 184, "leaf": 0.143386289 }
                  ]}, 
                  { "nodeid": 138, "depth": 8, "split": 5, "split_condition": 0.728781521, "yes": 185, "no": 186, "missing": 185 , "children": [
                    { "nodeid": 185, "depth": 9, "split": 3, "split_condition": 0.487233013, "yes": 237, "no": 238, "missing": 237 , "children": [
                      { "nodeid": 237, "leaf": -0.00873016473 }, 
                      { "nodeid": 238, "leaf": 0.111373626 }
                    ]}, 
                    { "nodeid": 186, "leaf": 0.0767784342 }
                  ]}
                ]}, 
                { "nodeid": 100, "depth": 7, "split": 2, "split_condition": 0.529616475, "yes": 139, "no": 140, "missing": 139 , "children": [
                  { "nodeid": 139, "leaf": 0.115991473 }, 
                  { "nodeid": 140, "leaf": 0.0588152222 }
                ]}
              ]}, 
              { "nodeid": 74, "depth": 6, "split": 1, "split_condition": 0.424242496, "yes": 101, "no": 102, "missing": 101 , "children": [
                { "nodeid": 101, "depth": 7, "split": 4, "split_condition": 0.598698497, "yes": 141, "no": 142, "missing": 141 , "children": [
                  { "nodeid": 141, "leaf": -0.0122416886 }, 
                  { "nodeid": 142, "leaf": -0.0564617999 }
                ]}, 
                { "nodeid": 102, "depth": 7, "split": 3, "split_condition": 0.631286979, "yes": 143, "no": 144, "missing": 143 , "children": [
                  { "nodeid": 143, "leaf": -0.132195547 }, 
                  { "nodeid": 144, "leaf": -0.0319065936 }
                ]}
              ]}
            ]}, 
            { "nodeid": 48, "depth": 5, "split": 4, "split_condition": 0.498987496, "yes": 75, "no": 76, "missing": 75 , "children": [
              { "nodeid": 75, "depth": 6, "split": 2, "split_condition": 0.663911521, "yes": 103, "no": 104, "missing": 103 , "children": [
                { "nodeid": 103, "depth": 7, "split": 4, "split_condition": 0.360655993, "yes": 145, "no": 146, "missing": 145 , "children": [
                  { "nodeid": 145, "leaf": -0.0667109936 }, 
                  { "nodeid": 146, "depth": 8, "split": 0, "split_condition": 0.930941999, "yes": 187, "no": 188, "missing": 187 , "children": [
                    { "nodeid": 187, "depth": 9, "split": 2, "split_condition": 0.330686003, "yes": 239, "no": 240, "missing": 239 , "children": [
                      { "nodeid": 239, "leaf": -0.0983213782 }, 
                      { "nodeid": 240, "leaf": -0.00400890177 }
                    ]}, 
                    { "nodeid": 188, "leaf": -0.164220884 }
                  ]}
                ]}, 
                { "nodeid": 104, "leaf": -0.0604738593 }
              ]}, 
              { "nodeid": 76, "depth": 6, "split": 2, "split_condition": 0.559757471, "yes": 105, "no": 106, "missing": 105 , "children": [
                { "nodeid": 105, "leaf": -0.162037432 }, 
                { "nodeid": 106, "leaf": -0.0454085618 }
              ]}
            ]}
          ]}
        ]}
      ]}, 
      { "nodeid": 6, "depth": 2, "split": 4, "split_condition": 0.306412011, "yes": 13, "no": 14, "missing": 13 , "children": [
        { "nodeid": 13, "depth": 3, "split": 0, "split_condition": 0.775428534, "yes": 27, "no": 28, "missing": 27 , "children": [
          { "nodeid": 27, "depth": 4, "split": 6, "split_condition": 0.171179995, "yes": 49, "no": 50, "missing": 49 , "children": [
            { "nodeid": 49, "depth": 5, "split": 5, "split_condition": 0.244608, "yes": 77, "no": 78, "missing": 77 , "children": [
              { "nodeid": 77, "leaf": -0.0710666701 }, 
              { "nodeid": 78, "depth": 6, "split": 0, "split_condition": 0.704228997, "yes": 107, "no": 108, "missing": 107 , "children": [
                { "nodeid": 107, "leaf": 0.111860655 }, 
                { "nodeid": 108, "leaf": -0.0488868505 }
              ]}
            ]}, 
            { "nodeid": 50, "leaf": 0.0754914284 }
          ]}, 
          { "nodeid": 28, "leaf": -0.145111233 }
        ]}, 
        { "nodeid": 14, "depth": 3, "split": 3, "split_condition": 0.244439989, "yes": 29, "no": 30, "missing": 29 , "children": [
          { "nodeid": 29, "leaf": -0.158555239 }, 
          { "nodeid": 30, "depth": 4, "split": 0, "split_condition": 0.741167009, "yes": 51, "no": 52, "missing": 51 , "children": [
            { "nodeid": 51, "depth": 5, "split": 1, "split_condition": 0.696969509, "yes": 79, "no": 80, "missing": 79 , "children": [
              { "nodeid": 79, "depth": 6, "split": 6, "split_condition": 0.150672495, "yes": 109, "no": 110, "missing": 109 , "children": [
                { "nodeid": 109, "leaf": -0.0798682198 }, 
                { "nodeid": 110, "leaf": 0.0400332771 }
              ]}, 
              { "nodeid": 80, "depth": 6, "split": 3, "split_condition": 0.816155493, "yes": 111, "no": 112, "missing": 111 , "children": [
                { "nodeid": 111, "depth": 7, "split": 5, "split_condition": 0.401366502, "yes": 147, "no": 148, "missing": 147 , "children": [
                  { "nodeid": 147, "depth": 8, "split": 2, "split_condition": 0.395794988, "yes": 189, "no": 190, "missing": 189 , "children": [
                    { "nodeid": 189, "depth": 9, "split": 4, "split_condition": 0.568608999, "yes": 241, "no": 242, "missing": 241 , "children": [
                      { "nodeid": 241, "leaf": -0.0878100768 }, 
                      { "nodeid": 242, "leaf": -0.141743585 }
                    ]}, 
                    { "nodeid": 190, "depth": 9, "split": 6, "split_condition": 0.150672495, "yes": 243, "no": 244, "missing": 243 , "children": [
                      { "nodeid": 243, "leaf": -0.153631657 }, 
                      { "nodeid": 244, "leaf": -0.0260532685 }
                    ]}
                  ]}, 
                  { "nodeid": 148, "depth": 8, "split": 6, "split_condition": 0.292582005, "yes": 191, "no": 192, "missing": 191 , "children": [
                    { "nodeid": 191, "depth": 9, "split": 3, "split_condition": 0.373888999, "yes": 245, "no": 246, "missing": 245 , "children": [
                      { "nodeid": 245, "leaf": -0.115146063 }, 
                      { "nodeid": 246, "leaf": 0.0259987302 }
                    ]}, 
                    { "nodeid": 192, "depth": 9, "split": 4, "split_condition": 0.723410487, "yes": 247, "no": 248, "missing": 247 , "children": [
                      { "nodeid": 247, "leaf": 0.0332451761 }, 
                      { "nodeid": 248, "leaf": -0.0586110726 }
                    ]}
                  ]}
                ]}, 
                { "nodeid": 112, "depth": 7, "split": 6, "split_condition": 0.220061988, "yes": 149, "no": 150, "missing": 149 , "children": [
                  { "nodeid": 149, "depth": 8, "split": 0, "split_condition": 0.68067503, "yes": 193, "no": 194, "missing": 193 , "children": [
                    { "nodeid": 193, "leaf": 0.0317821652 }, 
                    { "nodeid": 194, "leaf": -0.0947127566 }
                  ]}, 
                  { "nodeid": 150, "depth": 8, "split": 5, "split_condition": 0.291754991, "yes": 195, "no": 196, "missing": 195 , "children": [
                    { "nodeid": 195, "leaf": 0.0357741304 }, 
                    { "nodeid": 196, "leaf": 0.153661624 }
                  ]}
                ]}
              ]}
            ]}, 
            { "nodeid": 52, "leaf": -0.163228437 }
          ]}
        ]}
      ]}
    ]}
  ]},
  { "nodeid": 0, "depth": 0, "split": 0, "split_condition": 0.650696039, "yes": 1, "no": 2, "missing": 1 , "children": [
    { "nodeid": 1, "depth": 1, "split": 7, "split_condition": 0.875174522, "yes": 3, "no": 4, "missing": 3 , "children": [
      { "nodeid": 3, "depth": 2, "split": 4, "split_condition": 0.941666961, "yes": 7, "no": 8, "missing": 7 , "children": [
        { "nodeid": 7, "depth": 3, "split": 6, "split_condition": 0.151674002, "yes": 15, "no": 16, "missing": 15 , "children": [
          { "nodeid": 15, "depth": 4, "split": 3, "split_condition": 0.228576511, "yes": 31, "no": 32, "missing": 31 , "children": [
            { "nodeid": 31, "depth": 5, "split": 0, "split_condition": 0.577890515, "yes": 53, "no": 54, "missing": 53 , "children": [
              { "nodeid": 53, "leaf": 0.0686930418 }, 
              { "nodeid": 54, "leaf": -0.117316596 }
            ]}, 
            { "nodeid": 32, "leaf": 0.134711266 }
          ]}, 
          { "nodeid": 16, "depth": 4, "split": 1, "split_condition": 0.477272511, "yes": 33, "no": 34, "missing": 33 , "children": [
            { "nodeid": 33, "leaf": 0.0752753839 }, 
            { "nodeid": 34, "depth": 5, "split": 5, "split_condition": 0.119993001, "yes": 55, "no": 56, "missing": 55 , "children": [
              { "nodeid": 55, "depth": 6, "split": 0, "split_condition": 0.551391959, "yes": 81, "no": 82, "missing": 81 , "children": [
                { "nodeid": 81, "leaf": 0.0976800248 }, 
                { "nodeid": 82, "leaf": -0.0987986699 }
              ]}, 
              { "nodeid": 56, "depth": 6, "split": 3, "split_condition": 0.597984016, "yes": 83, "no": 84, "missing": 83 , "children": [
                { "nodeid": 83, "depth": 7, "split": 1, "split_condition": 0.856060505, "yes": 115, "no": 116, "missing": 115 , "children": [
                  { "nodeid": 115, "depth": 8, "split": 5, "split_condition": 0.418470979, "yes": 151, "no": 152, "missing": 151 , "children": [
                    { "nodeid": 151, "depth": 9, "split": 2, "split_condition": 0.446169496, "yes": 201, "no": 202, "missing": 201 , "children": [
                      { "nodeid": 201, "leaf": 0.121081047 }, 
                      { "nodeid": 202, "leaf": 0.163931459 }
                    ]}, 
                    { "nodeid": 152, "leaf": 0.156865284 }
                  ]}, 
                  { "nodeid": 116, "depth": 8, "split": 0, "split_condition": 0.410332024, "yes": 153, "no": 154, "missing": 153 , "children": [
                    { "nodeid": 153, "leaf": 0.0976800248 }, 
                    { "nodeid": 154, "depth": 9, "split": 0, "split_condition": 0.558886528, "yes": 203, "no": 204, "missing": 203 , "children": [
                      { "nodeid": 203, "leaf": -0.0019942394 }, 
                      { "nodeid": 204, "leaf": -0.105011158 }
                    ]}
                  ]}
                ]}, 
                { "nodeid": 84, "leaf": 0.153587565 }
              ]}
            ]}
          ]}
        ]}, 
        { "nodeid": 8, "depth": 3, "split": 0, "split_condition": 0.480460525, "yes": 17, "no": 18, "missing": 17 , "children": [
          { "nodeid": 17, "leaf": 0.148911059 }, 
          { "nodeid": 18, "leaf": -0.140513256 }
        ]}
      ]}, 
      { "nodeid": 4, "depth": 2, "split": 0, "split_condition": 0.557013035, "yes": 9, "no": 10, "missing": 9 , "children": [
        { "nodeid": 9, "depth": 3, "split": 4, "split_condition": 0.849087954, "yes": 19, "no": 20, "missing": 19 , "children": [
          { "nodeid": 19, "leaf": 0.152788803 }, 
          { "nodeid": 20, "depth": 4, "split": 0, "split_condition": 0.29389751, "yes": 35, "no": 36, "missing": 35 , "children": [
            { "nodeid": 35, "leaf": 0.10431315 }, 
            { "nodeid": 36, "depth": 5, "split": 1, "split_condition": 0.848484516, "yes": 57, "no": 58, "missing": 57 , "children": [
              { "nodeid": 57, "leaf": 0.0218394399 }, 
              { "nodeid": 58, "leaf": -0.117641307 }
            ]}
          ]}
        ]}, 
        { "nodeid": 10, "depth": 3, "split": 5, "split_condition": 0.190499499, "yes": 21, "no": 22, "missing": 21 , "children": [
          { "nodeid": 21, "depth": 4, "split": 1, "split_condition": 0.689393997, "yes": 37, "no": 38, "missing": 37 , "children": [
            { "nodeid": 37, "leaf": 0.0714973211 }, 
            { "nodeid": 38, "depth": 5, "split": 4, "split_condition": 0.449028015, "yes": 59, "no": 60, "missing": 59 , "children": [
              { "nodeid": 59, "leaf": -0.0156359132 }, 
              { "nodeid": 60, "leaf": -0.14952907 }
            ]}
          ]}, 
          { "nodeid": 22, "depth": 4, "split": 3, "split_condition": 0.244329989, "yes": 39, "no": 40, "missing": 39 , "children": [
            { "nodeid": 39, "leaf": 0.0171145145 }, 
            { "nodeid": 40, "leaf": 0.127446532 }
          ]}
        ]}
      ]}
    ]}, 
    { "nodeid": 2, "depth": 1, "split": 1, "split_condition": 0.606060505, "yes": 5, "no": 6, "missing": 5 , "children": [
      { "nodeid": 5, "depth": 2, "split": 0, "split_condition": 0.790417492, "yes": 11, "no": 12, "missing": 11 , "children": [
        { "nodeid": 11, "depth": 3, "split": 1, "split_condition": 0.204545498, "yes": 23, "no": 24, "missing": 23 , "children": [
          { "nodeid": 23, "depth": 4, "split": 3, "split_condition": 0.491867989, "yes": 41, "no": 42, "missing": 41 , "children": [
            { "nodeid": 41, "depth": 5, "split": 5, "split_condition": 0.464725494, "yes": 63, "no": 64, "missing": 63 , "children": [
              { "nodeid": 63, "depth": 6, "split": 7, "split_condition": 0.498987496, "yes": 85, "no": 86, "missing": 85 , "children": [
                { "nodeid": 85, "leaf": 0.137718424 }, 
                { "nodeid": 86, "depth": 7, "split": 2, "split_condition": 0.345994502, "yes": 117, "no": 118, "missing": 117 , "children": [
                  { "nodeid": 117, "depth": 8, "split": 7, "split_condition": 0.804610014, "yes": 155, "no": 156, "missing": 155 , "children": [
                    { "nodeid": 155, "leaf": 0.0768640935 }, 
                    { "nodeid": 156, "depth": 9, "split": 5, "split_condition": 0.138128996, "yes": 205, "no": 206, "missing": 205 , "children": [
                      { "nodeid": 205, "leaf": -0.0163965505 }, 
                      { "nodeid": 206, "leaf": 0.0363255478 }
                    ]}
                  ]}, 
                  { "nodeid": 118, "depth": 8, "split": 3, "split_condition": 0.236332506, "yes": 157, "no": 158, "missing": 157 , "children": [
                    { "nodeid": 157, "depth": 9, "split": 6, "split_condition": 0.232403994, "yes": 207, "no": 208, "missing": 207 , "children": [
                      { "nodeid": 207, "leaf": -0.0137648107 }, 
                      { "nodeid": 208, "leaf": 0.140214995 }
                    ]}, 
                    { "nodeid": 158, "leaf": 0.13394095 }
                  ]}
                ]}
              ]}, 
              { "nodeid": 64, "leaf": 0.153160855 }
            ]}, 
            { "nodeid": 42, "depth": 5, "split": 2, "split_condition": 0.0751330033, "yes": 65, "no": 66, "missing": 65 , "children": [
              { "nodeid": 65, "depth": 6, "split": 5, "split_condition": 0.276387513, "yes": 87, "no": 88, "missing": 87 , "children": [
                { "nodeid": 87, "depth": 7, "split": 6, "split_condition": 0.389627993, "yes": 119, "no": 120, "missing": 119 , "children": [
                  { "nodeid": 119, "depth": 8, "split": 7, "split_condition": 0.704521537, "yes": 159, "no": 160, "missing": 159 , "children": [
                    { "nodeid": 159, "leaf": 0.0976800248 }, 
                    { "nodeid": 160, "leaf": 0.0104525071 }
                  ]}, 
                  { "nodeid": 120, "leaf": -0.00857823621 }
                ]}, 
                { "nodeid": 88, "leaf": 0.115531266 }
              ]}, 
              { "nodeid": 66, "leaf": 0.142254636 }
            ]}
          ]}, 
          { "nodeid": 24, "depth": 4, "split": 7, "split_condition": 0.40804702, "yes": 43, "no": 44, "missing": 43 , "children": [
            { "nodeid": 43, "leaf": 0.149750993 }, 
            { "nodeid": 44, "depth": 5, "split": 2, "split_condition": 0.458562493, "yes": 67, "no": 68, "missing": 67 , "children": [
              { "nodeid": 67, "depth": 6, "split": 5, "split_condition": 0.418439507, "yes": 89, "no": 90, "missing": 89 , "children": [
                { "nodeid": 89, "depth": 7, "split": 3, "split_condition": 0.502287507, "yes": 121, "no": 122, "missing": 121 , "children": [
                  { "nodeid": 121, "depth": 8, "split": 7, "split_condition": 0.703705549, "yes": 163, "no": 164, "missing": 163 , "children": [
                    { "nodeid": 163, "leaf": 0.0153807849 }, 
                    { "nodeid": 164, "depth": 9, "split": 0, "split_condition": 0.726713002, "yes": 213, "no": 214, "missing": 213 , "children": [
                      { "nodeid": 213, "leaf": 0.088412106 }, 
                      { "nodeid": 214, "leaf": -0.162634343 }
                    ]}
                  ]}, 
                  { "nodeid": 122, "depth": 8, "split": 6, "split_condition": 0.460057497, "yes": 165, "no": 166, "missing": 165 , "children": [
                    { "nodeid": 165, "leaf": 0.0822022557 }, 
                    { "nodeid": 166, "leaf": 0.00361388922 }
                  ]}
                ]}, 
                { "nodeid": 90, "depth": 7, "split": 3, "split_condition": 0.226223499, "yes": 123, "no": 124, "missing": 123 , "children": [
                  { "nodeid": 123, "leaf": 0.0307067428 }, 
                  { "nodeid": 124, "leaf": 0.111377858 }
                ]}
              ]}, 
              { "nodeid": 68, "leaf": 0.109730221 }
            ]}
          ]}
        ]}, 
        { "nodeid": 12, "depth": 3, "split": 5, "split_condition": 0.565977454, "yes": 25, "no": 26, "missing": 25 , "children": [
          { "nodeid": 25, "depth": 4, "split": 2, "split_condition": 0.501156509, "yes": 45, "no": 46, "missing": 45 , "children": [
            { "nodeid": 45, "depth": 5, "split": 7, "split_condition": 0.498987496, "yes": 69, "no": 70, "missing": 69 , "children": [
              { "nodeid": 69, "depth": 6, "split": 0, "split_condition": 0.876070499, "yes": 93, "no": 94, "missing": 93 , "children": [
                { "nodeid": 93, "depth": 7, "split": 1, "split_condition": 0.204545498, "yes": 125, "no": 126, "missing": 125 , "children": [
                  { "nodeid": 125, "depth": 8, "split": 3, "split_condition": 0.642403007, "yes": 167, "no": 168, "missing": 167 , "children": [
                    { "nodeid": 167, "depth": 9, "split": 4, "split_condition": 0.780648947, "yes": 215, "no": 216, "missing": 215 , "children": [
                      { "nodeid": 215, "leaf": -0.0445600376 }, 
                      { "nodeid": 216, "leaf": -0.126393706 }
                    ]}, 
                    { "nodeid": 168, "leaf": 0.0980509743 }
                  ]}, 
                  { "nodeid": 126, "leaf": -0.13894853 }
                ]}, 
                { "nodeid": 94, "leaf": -0.152259454 }
              ]}, 
              { "nodeid": 70, "depth": 6, "split": 4, "split_condition": 0.366708994, "yes": 95, "no": 96, "missing": 95 , "children": [
                { "nodeid": 95, "depth": 7, "split": 0, "split_condition": 0.869914472, "yes": 127, "no": 128, "missing": 127 , "children": [
                  { "nodeid": 127, "depth": 8, "split": 7, "split_condition": 0.795516014, "yes": 169, "no": 170, "missing": 169 , "children": [
                    { "nodeid": 169, "depth": 9, "split": 6, "split_condition": 0.514832497, "yes": 217, "no": 218, "missing": 217 , "children": [
                      { "nodeid": 217, "leaf": 0.0143923312 }, 
                      { "nodeid": 218, "leaf": 0.10431315 }
                    ]}, 
                    { "nodeid": 170, "depth": 9, "split": 3, "split_condition": 0.757370472, "yes": 219, "no": 220, "missing": 219 , "children": [
                      { "nodeid": 219, "leaf": -0.10888622 }, 
                      { "nodeid": 220, "leaf": -0.0433610268 }
                    ]}
                  ]}, 
                  { "nodeid": 128, "leaf": -0.148509368 }
                ]}, 
                { "nodeid": 96, "depth": 7, "split": 5, "split_condition": 0.428935498, "yes": 129, "no": 130, "missing": 129 , "children": [
                  { "nodeid": 129, "depth": 8, "split": 4, "split_condition": 0.700293005, "yes": 171, "no": 172, "missing": 171 , "children": [
                    { "nodeid": 171, "depth": 9, "split": 6, "split_condition": 0.28372851, "yes": 221, "no": 222, "missing": 221 , "children": [
                      { "nodeid": 221, "leaf": -0.152315751 }, 
                      { "nodeid": 222, "leaf": -0.136331767 }
                    ]}, 
                    { "nodeid": 172, "leaf": -0.153920159 }
                  ]}, 
                  { "nodeid": 130, "depth": 8, "split": 7, "split_condition": 0.587097526, "yes": 173, "no": 174, "missing": 173 , "children": [
                    { "nodeid": 173, "depth": 9, "split": 0, "split_condition": 0.835384965, "yes": 223, "no": 224, "missing": 223 , "children": [
                      { "nodeid": 223, "leaf": -0.0357814468 }, 
                      { "nodeid": 224, "leaf": -0.152454287 }
                    ]}, 
                    { "nodeid": 174, "depth": 9, "split": 0, "split_condition": 0.883298039, "yes": 225, "no": 226, "missing": 225 , "children": [
                      { "nodeid": 225, "leaf": 0.0375836305 }, 
                      { "nodeid": 226, "leaf": -0.148853853 }
                    ]}
                  ]}
                ]}
              ]}
            ]}, 
            { "nodeid": 46, "depth": 5, "split": 0, "split_condition": 0.883029997, "yes": 71, "no": 72, "missing": 71 , "children": [
              { "nodeid": 71, "depth": 6, "split": 4, "split_condition": 0.496379495, "yes": 97, "no": 98, "missing": 97 , "children": [
                { "nodeid": 97, "depth": 7, "split": 2, "split_condition": 0.60926348, "yes": 131, "no": 132, "missing": 131 , "children": [
                  { "nodeid": 131, "depth": 8, "split": 7, "split_condition": 0.774317503, "yes": 175, "no": 176, "missing": 175 , "children": [
                    { "nodeid": 175, "depth": 9, "split": 1, "split_condition": 0.159090996, "yes": 227, "no": 228, "missing": 227 , "children": [
                      { "nodeid": 227, "leaf": 0.0346096456 }, 
                      { "nodeid": 228, "leaf": -0.08622206 }
                    ]}, 
                    { "nodeid": 176, "depth": 9, "split": 1, "split_condition": 0.0303035006, "yes": 229, "no": 230, "missing": 229 , "children": [
                      { "nodeid": 229, "leaf": 0.0200653076 }, 
                      { "nodeid": 230, "leaf": -0.0852093026 }
                    ]}
                  ]}, 
                  { "nodeid": 132, "depth": 8, "split": 5, "split_condition": 0.348066509, "yes": 177, "no": 178, "missing": 177 , "children": [
                    { "nodeid": 177, "depth": 9, "split": 3, "split_condition": 0.927166998, "yes": 231, "no": 232, "missing": 231 , "children": [
                      { "nodeid": 231, "leaf": 0.0741802976 }, 
                      { "nodeid": 232, "leaf": 0.129532203 }
                    ]}, 
                    { "nodeid": 178, "leaf": 0.151495948 }
                  ]}
                ]}, 
                { "nodeid": 98, "depth": 7, "split": 2, "split_condition": 0.67859149, "yes": 133, "no": 134, "missing": 133 , "children": [
                  { "nodeid": 133, "depth": 8, "split": 3, "split_condition": 0.40071398, "yes": 179, "no": 180, "missing": 179 , "children": [
                    { "nodeid": 179, "depth": 9, "split": 5, "split_condition": 0.305532515, "yes": 233, "no": 234, "missing": 233 , "children": [
                      { "nodeid": 233, "leaf": -0.134962857 }, 
                      { "nodeid": 234, "leaf": -0.0699111223 }
                    ]}, 
                    { "nodeid": 180, "depth": 9, "split": 7, "split_condition": 0.485884011, "yes": 235, "no": 236, "missing": 235 , "children": [
                      { "nodeid": 235, "leaf": 0.0483400971 }, 
                      { "nodeid": 236, "leaf": -0.0493427552 }
                    ]}
                  ]}, 
                  { "nodeid": 134, "depth": 8, "split": 6, "split_condition": 0.142639995, "yes": 181, "no": 182, "missing": 181 , "children": [
                    { "nodeid": 181, "leaf": 0.00361388922 }, 
                    { "nodeid": 182, "leaf": 0.0992196575 }
                  ]}
                ]}
              ]}, 
              { "nodeid": 72, "depth": 6, "split": 7, "split_condition": 0.394656003, "yes": 99, "no": 100, "missing": 99 , "children": [
                { "nodeid": 99, "depth": 7, "split": 4, "split_condition": 0.395195484, "yes": 135, "no": 136, "missing": 135 , "children": [
                  { "nodeid": 135, "leaf": -0.0405219793 }, 
                  { "nodeid": 136, "leaf": -0.115967095 }
                ]}, 
                { "nodeid": 100, "leaf": -0.143866479 }
              ]}
            ]}
          ]}, 
          { "nodeid": 26, "depth": 4, "split": 0, "split_condition": 0.888383508, "yes": 47, "no": 48, "missing": 47 , "children": [
            { "nodeid": 47, "depth": 5, "split": 1, "split_condition": 0.204545498, "yes": 73, "no": 74, "missing": 73 , "children": [
              { "nodeid": 73, "depth": 6, "split": 2, "split_condition": 0.311321974, "yes": 101, "no": 102, "missing": 101 , "children": [
                { "nodeid": 101, "depth": 7, "split": 6, "split_condition": 0.601228952, "yes": 137, "no": 138, "missing": 137 , "children": [
                  { "nodeid": 137, "depth": 8, "split": 3, "split_condition": 0.408230007, "yes": 183, "no": 184, "missing": 183 , "children": [
                    { "nodeid": 183, "leaf": 0.0590613969 }, 
                    { "nodeid": 184, "depth": 9, "split": 6, "split_condition": 0.449784994, "yes": 239, "no": 240, "missing": 239 , "children": [
                      { "nodeid": 239, "leaf": 0.151058465 }, 
                      { "nodeid": 240, "leaf": 0.0798192695 }
                    ]}
                  ]}, 
                  { "nodeid": 138, "depth": 8, "split": 5, "split_condition": 0.728781521, "yes": 185, "no": 186, "missing": 185 , "children": [
                    { "nodeid": 185, "depth": 9, "split": 7, "split_condition": 0.1459205, "yes": 241, "no": 242, "missing": 241 , "children": [
                      { "nodeid": 241, "leaf": -0.038632568 }, 
                      { "nodeid": 242, "leaf": 0.0362072811 }
                    ]}, 
                    { "nodeid": 186, "depth": 9, "split": 6, "split_condition": 0.927166998, "yes": 243, "no": 244, "missing": 243 , "children": [
                      { "nodeid": 243, "leaf": 0.0993073136 }, 
                      { "nodeid": 244, "leaf": 0.0452763103 }
                    ]}
                  ]}
                ]}, 
                { "nodeid": 102, "depth": 7, "split": 2, "split_condition": 0.529616475, "yes": 139, "no": 140, "missing": 139 , "children": [
                  { "nodeid": 139, "depth": 8, "split": 4, "split_condition": 0.676355004, "yes": 187, "no": 188, "missing": 187 , "children": [
                    { "nodeid": 187, "leaf": 0.139878288 }, 
                    { "nodeid": 188, "depth": 9, "split": 3, "split_condition": 0.262643993, "yes": 245, "no": 246, "missing": 245 , "children": [
                      { "nodeid": 245, "leaf": 0.00416410668 }, 
                      { "nodeid": 246, "leaf": 0.117103949 }
                    ]}
                  ]}, 
                  { "nodeid": 140, "leaf": 0.0535637699 }
                ]}
              ]}, 
              { "nodeid": 74, "depth": 6, "split": 1, "split_condition": 0.424242496, "yes": 103, "no": 104, "missing": 103 , "children": [
                { "nodeid": 103, "depth": 7, "split": 4, "split_condition": 0.598698497, "yes": 141, "no": 142, "missing": 141 , "children": [
                  { "nodeid": 141, "leaf": -0.0114679923 }, 
                  { "nodeid": 142, "leaf": -0.0535272323 }
                ]}, 
                { "nodeid": 104, "depth": 7, "split": 3, "split_condition": 0.631286979, "yes": 143, "no": 144, "missing": 143 , "children": [
                  { "nodeid": 143, "leaf": -0.123325542 }, 
                  { "nodeid": 144, "leaf": -0.0300416499 }
                ]}
              ]}
            ]}, 
            { "nodeid": 48, "depth": 5, "split": 4, "split_condition": 0.498987496, "yes": 75, "no": 76, "missing": 75 , "children": [
              { "nodeid": 75, "depth": 6, "split": 2, "split_condition": 0.663911521, "yes": 105, "no": 106, "missing": 105 , "children": [
